SVM-light Version V6.02
1 # kernel type
2 # kernel parameter -d 
1 # kernel parameter -g 
1 # kernel parameter -s 
1 # kernel parameter -r 
empty# kernel parameter -u 
147 # highest feature index 
31208 # number of training documents 
906 # number of support vectors plus 1 
1.0515235 # threshold b, each following line is a SV (starting with alpha*y)
-0.0010162281530408572103457709445706 1:1 26:1 47:1 51:1 81:1 82:1 101:1 118:1 124:1 133:1 135:1 139:1 143:1 # 11356
-0.0023161650689049926264695411504135 5:1 9:1 28:1 29:1 32:1 34:1 47:1 51:1 68:1 85:1 126:1 131:1 138:1 139:1 145:1 # 9610
0.0015679405737540513029321109783609 8:1 11:1 34:1 40:1 47:1 51:1 53:1 55:1 58:1 61:1 64:1 89:1 103:1 122:1 144:1 145:1 # 25765
-0.00072983264864784661799662623948848 8:1 11:1 27:1 47:1 51:1 53:1 55:1 61:1 70:1 72:1 74:1 76:1 90:1 110:1 116:1 131:1 # 4182
-0.0012735377536266471315551385146136 10:1 39:1 43:1 69:1 89:1 93:1 95:1 97:1 100:1 103:1 113:1 114:1 116:1 132:1 # 4901
0.0038324580938920841700900954407416 68:1 72:1 74:1 76:1 79:1 82:1 105:1 111:1 124:1 131:1 135:1 # 0
0.00055180365140262456480346742182519 9:1 29:1 32:1 34:1 47:1 64:1 95:1 103:1 110:1 114:1 140:1 # 11
0.0018507309727289059705229723462594 18:1 29:1 32:1 60:1 64:1 89:1 93:1 95:1 97:1 100:1 103:1 114:1 131:1 132:1 137:1 143:1 # 43
0.0035523178532246395266991356720609 14:1 26:1 30:1 32:1 34:1 37:1 40:1 59:1 64:1 90:1 103:1 116:1 131:1 # 23679
0.0038324580938920841700900954407416 8:1 11:1 39:1 49:1 51:1 53:1 55:1 68:1 105:1 122:1 134:1 145:1 # 96
-0.00038889399664990682804407984285433 11:1 26:1 56:1 81:1 97:1 103:1 123:1 140:1 # 2839
0.0038324580938920841700900954407416 9:1 29:1 32:1 47:1 51:1 53:1 55:1 58:1 61:1 64:1 97:1 103:1 122:1 131:1 138:1 # 25895
-0.0028093614550384650441205991455718 5:1 13:1 19:1 35:1 55:1 61:1 64:1 89:1 110:1 111:1 116:1 122:1 127:1 # 23723
0.00093264161126335883532367798665064 21:1 42:1 47:1 51:1 53:1 55:1 58:1 61:1 68:1 72:1 74:1 76:1 79:1 82:1 105:1 110:1 113:1 116:1 131:1 135:1 137:1 139:1 142:1 145:1 # 787
0.0038324580938920841700900954407416 5:1 9:1 22:1 47:1 51:1 53:1 55:1 58:1 61:1 73:1 90:1 103:1 110:1 114:1 116:1 118:1 121:1 124:1 131:1 135:1 137:1 # 4173
0.0038324580938920841700900954407416 5:1 9:1 11:1 13:1 16:1 19:1 38:1 47:1 51:1 55:1 61:1 81:1 89:1 93:1 95:1 97:1 100:1 103:1 110:1 114:1 134:1 137:1 139:1 # 5542
-0.0038324580938920841700900954407416 5:1 9:1 11:1 16:1 22:1 47:1 51:1 53:1 55:1 58:1 61:1 64:1 89:1 93:1 95:1 97:1 100:1 103:1 110:1 114:1 131:1 134:1 135:1 137:1 139:1 143:1 # 13038
0.0020397150305465853309394574921498 5:1 26:1 29:1 30:1 32:1 34:1 38:1 55:1 61:1 64:1 89:1 90:1 93:1 95:1 96:1 97:1 101:1 103:1 123:1 143:1 # 26385
-0.0035105737127431859909143518905239 5:1 9:1 11:1 13:1 16:1 19:1 38:1 58:1 64:1 89:1 110:1 143:1 # 3355
0.002749366432260125746311896222096 6:1 26:1 30:1 32:1 34:1 37:1 40:1 47:1 64:1 89:1 93:1 95:1 97:1 100:1 103:1 113:1 116:1 118:1 144:1 145:1 # 27434
0.0013637807427427177907330868578129 18:1 38:1 47:1 53:1 55:1 59:1 61:1 64:1 89:1 93:1 103:1 118:1 124:1 131:1 135:1 # 27101
-0.00051905412133111379722333333930351 10:1 39:1 47:1 51:1 53:1 55:1 58:1 61:1 81:1 101:1 114:1 116:1 131:1 # 18046
-0.0038324580938920841700900954407416 17:1 26:1 32:1 34:1 38:1 40:1 59:1 64:1 97:1 103:1 110:1 114:1 140:1 # 7937
-0.0038324580938920841700900954407416 5:1 9:1 26:1 29:1 30:1 32:1 34:1 38:1 47:1 53:1 55:1 59:1 61:1 64:1 97:1 103:1 110:1 114:1 140:1 # 6887
-0.0038324580938920841700900954407416 17:1 26:1 30:1 32:1 34:1 37:1 40:1 55:1 61:1 64:1 97:1 103:1 110:1 114:1 116:1 118:1 121:1 124:1 140:1 # 10280
0.0029865775363634933584067177037014 5:1 8:1 9:1 11:1 13:1 17:1 27:1 47:1 51:1 53:1 58:1 64:1 89:1 93:1 95:1 97:1 100:1 103:1 114:1 131:1 135:1 137:1 139:1 142:1 145:1 # 8466
0.0038324580938920841700900954407416 3:1 38:1 47:1 64:1 89:1 95:1 97:1 103:1 123:1 124:1 131:1 144:1 # 9822
0.0011771949390828575967432589877149 9:1 29:1 32:1 47:1 51:1 53:1 55:1 58:1 61:1 64:1 89:1 93:1 95:1 97:1 100:1 103:1 123:1 133:1 135:1 137:1 139:1 # 26068
-0.0038324580938920841700900954407416 9:1 29:1 32:1 55:1 61:1 64:1 97:1 103:1 118:1 124:1 143:1 # 12555
0.0020164481642394442052756975414241 5:1 26:1 29:1 30:1 32:1 34:1 38:1 55:1 61:1 64:1 89:1 103:1 114:1 135:1 # 17824
-0.00036102192857234314746217584968235 5:1 9:1 11:1 13:1 16:1 19:1 28:1 30:1 32:1 34:1 58:1 61:1 64:1 97:1 103:1 122:1 133:1 139:1 # 10626
0.0038324580938920841700900954407416 8:1 11:1 19:1 26:1 27:1 30:1 32:1 33:1 34:1 38:1 40:1 47:1 51:1 53:1 55:1 58:1 61:1 68:1 72:1 74:1 76:1 79:1 82:1 90:1 97:1 103:1 118:1 124:1 140:1 # 1854
0.0037014321496078536090357236076898 5:1 26:1 29:1 30:1 32:1 34:1 38:1 47:1 51:1 53:1 55:1 58:1 61:1 64:1 101:1 110:1 111:1 114:1 116:1 117:1 118:1 122:1 124:1 143:1 # 7910
0.0012755909605749390922646568924392 18:1 39:1 59:1 64:1 105:1 114:1 124:1 134:1 137:1 # 3520
-0.0015779093398352161264908133375684 14:1 26:1 30:1 32:1 37:1 50:1 55:1 64:1 89:1 95:1 123:1 144:1 145:1 # 3388
-0.0038324580938920841700900954407416 17:1 26:1 30:1 32:1 34:1 37:1 40:1 55:1 61:1 64:1 89:1 90:1 95:1 97:1 101:1 103:1 106:1 144:1 145:1 # 15458
0.0038324580938920841700900954407416 5:1 9:1 11:1 13:1 16:1 19:1 32:1 59:1 64:1 95:1 103:1 119:1 131:1 135:1 137:1 139:1 142:1 145:1 # 4025
0.00016212498810089283622810907292688 5:1 9:1 11:1 13:1 16:1 19:1 26:1 29:1 30:1 32:1 34:1 38:1 55:1 61:1 64:1 91:1 92:1 97:1 103:1 110:1 114:1 134:1 137:1 139:1 # 25003
-0.0038324580938920841700900954407416 5:1 38:1 47:1 51:1 53:1 55:1 58:1 61:1 64:1 102:1 110:1 111:1 114:1 116:1 117:1 118:1 122:1 124:1 133:1 135:1 137:1 139:1 # 4736
-0.0032850879759578756160454116042047 5:1 9:1 11:1 13:1 16:1 19:1 38:1 47:1 64:1 89:1 90:1 95:1 97:1 101:1 103:1 106:1 144:1 145:1 # 21346
0.0018116815535501392016304311738395 7:1 9:1 11:1 13:1 26:1 30:1 32:1 34:1 37:1 40:1 55:1 61:1 64:1 91:1 92:1 97:1 103:1 110:1 134:1 137:1 139:1 # 19678
0.0017709955800358670278960016020164 8:1 11:1 26:1 30:1 32:1 34:1 37:1 40:1 53:1 55:1 61:1 64:1 89:1 93:1 95:1 97:1 100:1 103:1 110:1 114:1 116:1 118:1 121:1 124:1 131:1 139:1 145:1 # 25739
0.0038324580938920841700900954407416 17:1 26:1 30:1 32:1 34:1 37:1 40:1 59:1 64:1 102:1 110:1 114:1 116:1 121:1 128:1 # 6306
-0.00060657529923226151304799236285703 18:1 19:1 31:1 47:1 51:1 53:1 73:1 89:1 93:1 95:1 97:1 100:1 103:1 119:1 131:1 135:1 137:1 # 27418
-0.0038324580938920841700900954407416 14:1 26:1 30:1 32:1 34:1 37:1 40:1 59:1 64:1 102:1 103:1 110:1 114:1 116:1 121:1 134:1 137:1 139:1 # 6545
-0.0038324580938920841700900954407416 9:1 26:1 27:1 29:1 30:1 32:1 33:1 38:1 58:1 64:1 89:1 93:1 95:1 97:1 100:1 103:1 110:1 135:1 # 4598
0.0038324580938920841700900954407416 18:1 38:1 55:1 61:1 64:1 89:1 97:1 103:1 114:1 134:1 137:1 # 30804
0.0038324580938920841700900954407416 5:1 12:1 38:1 47:1 51:1 53:1 55:1 58:1 61:1 80:1 95:1 97:1 103:1 110:1 114:1 135:1 # 5458
0.00089668621989981878595693531863731 5:1 30:1 47:1 51:1 53:1 55:1 58:1 61:1 64:1 95:1 101:1 103:1 119:1 135:1 138:1 # 10185
0.0038324580938920841700900954407416 5:1 9:1 26:1 34:1 40:1 47:1 55:1 61:1 64:1 102:1 115:1 131:1 135:1 137:1 139:1 142:1 145:1 # 25912
0.0011821976986287111542617278558964 7:1 8:1 11:1 13:1 26:1 30:1 32:1 37:1 47:1 64:1 105:1 122:1 131:1 139:1 145:1 # 2553
-0.0011243165104796190665453758938952 5:1 26:1 51:1 72:1 93:1 113:1 116:1 118:1 132:1 # 11348
0.0014262271048853928691324544075769 8:1 11:1 34:1 40:1 55:1 61:1 64:1 102:1 103:1 116:1 118:1 124:1 135:1 145:1 # 18873
0.0038324580938920841700900954407416 18:1 35:1 53:1 64:1 97:1 103:1 122:1 131:1 # 13252
-0.0010225058137431515797172165704865 10:1 39:1 40:1 59:1 68:1 93:1 113:1 116:1 139:1 145:1 # 25312
0.0018840807540183785503268287797596 5:1 13:1 19:1 26:1 34:1 40:1 59:1 64:1 95:1 97:1 103:1 110:1 133:1 134:1 137:1 139:1 # 16279
-0.0038324580938920841700900954407416 5:1 8:1 11:1 26:1 30:1 32:1 34:1 37:1 40:1 50:1 55:1 64:1 90:1 114:1 131:1 134:1 135:1 137:1 139:1 143:1 # 5669
-0.0038324580938920841700900954407416 5:1 9:1 11:1 13:1 16:1 19:1 26:1 30:1 32:1 34:1 37:1 40:1 55:1 61:1 64:1 95:1 97:1 103:1 119:1 139:1 145:1 # 12812
-0.0038324580938920841700900954407416 5:1 9:1 11:1 13:1 16:1 19:1 26:1 30:1 32:1 37:1 47:1 55:1 61:1 64:1 101:1 110:1 114:1 116:1 121:1 134:1 137:1 139:1 # 11040
2.7205507433235487011174286164916e-05 5:1 9:1 11:1 13:1 16:1 19:1 28:1 29:1 34:1 40:1 47:1 51:1 53:1 55:1 58:1 61:1 68:1 72:1 74:1 76:1 79:1 82:1 105:1 126:1 144:1 145:1 # 794
0.0038324580938920841700900954407416 9:1 11:1 26:1 30:1 51:1 72:1 89:1 93:1 95:1 97:1 100:1 103:1 113:1 116:1 131:1 135:1 137:1 142:1 # 15256
0.0038324580938920841700900954407416 5:1 6:1 9:1 11:1 26:1 30:1 50:1 53:1 79:1 82:1 89:1 93:1 95:1 100:1 110:1 131:1 135:1 137:1 # 6130
-0.0012761349025282209442011538413908 9:1 27:1 47:1 51:1 53:1 68:1 89:1 93:1 95:1 97:1 100:1 103:1 110:1 131:1 135:1 137:1 142:1 # 15033
-0.0038324580938920841700900954407416 1:1 38:1 47:1 51:1 53:1 55:1 58:1 61:1 64:1 89:1 93:1 95:1 97:1 100:1 103:1 106:1 131:1 135:1 137:1 139:1 142:1 145:1 # 3862
0.0006648370415809441366650212046352 18:1 26:1 30:1 32:1 37:1 59:1 66:1 105:1 126:1 132:1 139:1 145:1 # 2414
-0.00017102402591169098646818602649233 18:1 35:1 47:1 51:1 53:1 55:1 58:1 61:1 73:1 102:1 103:1 122:1 131:1 # 25309
0.0016162904842463531301238743864701 5:1 9:1 11:1 13:1 16:1 19:1 26:1 30:1 32:1 34:1 37:1 40:1 47:1 51:1 53:1 55:1 58:1 61:1 64:1 89:1 103:1 114:1 135:1 137:1 # 24351
-0.00091663359137932813418270239225194 18:1 26:1 59:1 72:1 92:1 95:1 118:1 124:1 143:1 # 21467
-0.0038324580938920841700900954407416 5:1 9:1 11:1 13:1 16:1 19:1 26:1 34:1 40:1 47:1 55:1 61:1 64:1 97:1 103:1 122:1 135:1 # 12041
-0.0038324580938920841700900954407416 9:1 32:1 47:1 51:1 53:1 55:1 58:1 61:1 64:1 105:1 113:1 116:1 118:1 124:1 144:1 # 5222
-0.0038324580938920841700900954407416 5:1 6:1 8:1 9:1 11:1 12:1 17:1 27:1 28:1 32:1 34:1 47:1 53:1 55:1 59:1 61:1 64:1 89:1 110:1 114:1 135:1 # 6162
0.0038324580938920841700900954407416 1:1 39:1 47:1 51:1 55:1 61:1 81:1 89:1 93:1 95:1 97:1 100:1 103:1 116:1 131:1 135:1 137:1 139:1 142:1 145:1 # 7894
0.0038324580938920841700900954407416 1:1 39:1 43:1 81:1 89:1 93:1 97:1 103:1 123:1 131:1 135:1 137:1 139:1 142:1 145:1 # 7892
0.0024161679241942973610235423365111 18:1 38:1 47:1 53:1 55:1 59:1 61:1 64:1 95:1 103:1 118:1 124:1 143:1 # 26189
0.001910299017794389294169765669551 17:1 24:1 47:1 50:1 53:1 64:1 101:1 110:1 116:1 118:1 122:1 124:1 143:1 # 5696
0.0038324580938920841700900954407416 5:1 29:1 30:1 32:1 60:1 61:1 64:1 90:1 103:1 110:1 134:1 137:1 139:1 # 9151
0.0038324580938920841700900954407416 8:1 11:1 13:1 27:1 32:1 47:1 51:1 55:1 61:1 68:1 72:1 74:1 101:1 113:1 116:1 135:1 # 855
0.0038324580938920841700900954407416 10:1 27:1 40:1 47:1 51:1 53:1 55:1 58:1 61:1 68:1 72:1 76:1 82:1 105:1 110:1 114:1 116:1 118:1 121:1 124:1 132:1 # 527
0.0038324580938920841700900954407416 5:1 9:1 11:1 13:1 16:1 19:1 34:1 40:1 55:1 61:1 64:1 105:1 110:1 114:1 116:1 118:1 121:1 124:1 133:1 135:1 137:1 139:1 # 257
4.2515875065834370951072668232129e-05 14:1 39:1 47:1 51:1 53:1 58:1 64:1 89:1 93:1 95:1 97:1 100:1 103:1 114:1 134:1 137:1 # 6006
-0.0038324580938920841700900954407416 16:1 22:1 60:1 64:1 102:1 122:1 131:1 135:1 137:1 139:1 142:1 145:1 # 5536
0.0038324580938920841700900954407416 9:1 26:1 29:1 30:1 32:1 34:1 38:1 47:1 51:1 53:1 55:1 58:1 61:1 64:1 89:1 93:1 95:1 97:1 100:1 103:1 119:1 131:1 135:1 137:1 139:1 142:1 145:1 # 25974
0.0038324580938920841700900954407416 18:1 38:1 47:1 53:1 55:1 59:1 61:1 64:1 89:1 93:1 95:1 97:1 100:1 103:1 122:1 139:1 145:1 # 17762
0.0038324580938920841700900954407416 18:1 38:1 47:1 53:1 55:1 59:1 61:1 64:1 89:1 93:1 95:1 97:1 100:1 103:1 122:1 131:1 # 25159
0.00070919051795158088123682826875438 8:1 11:1 13:1 30:1 50:1 53:1 64:1 89:1 92:1 97:1 103:1 114:1 144:1 145:1 # 23864
-0.0025822260011157914527668566506691 8:1 11:1 13:1 27:1 47:1 55:1 57:1 61:1 64:1 89:1 93:1 95:1 100:1 123:1 131:1 139:1 141:1 145:1 # 11225
-0.0038324580938920841700900954407416 9:1 29:1 32:1 55:1 61:1 64:1 89:1 93:1 95:1 97:1 100:1 103:1 107:1 131:1 135:1 137:1 139:1 142:1 145:1 # 9772
0.0038324580938920841700900954407416 5:1 9:1 11:1 13:1 16:1 19:1 26:1 29:1 30:1 32:1 34:1 38:1 47:1 64:1 101:1 110:1 114:1 116:1 118:1 121:1 124:1 143:1 # 4631
0.0038324580938920841700900954407416 5:1 9:1 11:1 16:1 26:1 30:1 32:1 37:1 47:1 51:1 53:1 58:1 64:1 95:1 110:1 114:1 116:1 121:1 131:1 132:1 135:1 137:1 139:1 143:1 # 9175
0.0038324580938920841700900954407416 18:1 26:1 30:1 32:1 37:1 47:1 64:1 102:1 110:1 114:1 116:1 118:1 121:1 124:1 134:1 137:1 139:1 # 19122
-9.4687263144012341143165856216513e-05 9:1 13:1 19:1 26:1 30:1 32:1 34:1 37:1 40:1 60:1 73:1 90:1 103:1 110:1 114:1 116:1 118:1 121:1 124:1 131:1 135:1 139:1 145:1 # 524
-0.0033794727817635173208743459838388 18:1 38:1 60:1 66:1 85:1 126:1 131:1 135:1 137:1 139:1 142:1 145:1 # 3771
-0.0038324580938920841700900954407416 1:1 39:1 60:1 64:1 89:1 93:1 95:1 97:1 100:1 103:1 115:1 144:1 145:1 # 29235
0.0038324580938920841700900954407416 8:1 11:1 34:1 40:1 55:1 61:1 64:1 89:1 93:1 95:1 97:1 100:1 103:1 118:1 124:1 131:1 135:1 137:1 139:1 142:1 145:1 # 18984
0.00097220172406855772696820938705287 7:1 8:1 11:1 13:1 39:1 40:1 47:1 55:1 61:1 68:1 76:1 82:1 105:1 126:1 137:1 145:1 # 706
0.0038324580938920841700900954407416 8:1 11:1 34:1 40:1 47:1 53:1 55:1 61:1 64:1 102:1 115:1 131:1 135:1 137:1 139:1 142:1 145:1 # 25182
-0.0038324580938920841700900954407416 8:1 11:1 13:1 26:1 32:1 47:1 51:1 64:1 105:1 111:1 124:1 135:1 137:1 # 5439
-0.0038324580938920841700900954407416 9:1 11:1 26:1 29:1 30:1 32:1 34:1 38:1 47:1 55:1 59:1 61:1 64:1 89:1 93:1 95:1 100:1 113:1 116:1 131:1 135:1 137:1 139:1 142:1 145:1 # 18471
-0.0038324580938920841700900954407416 5:1 11:1 38:1 47:1 51:1 53:1 58:1 64:1 89:1 93:1 97:1 103:1 123:1 131:1 137:1 139:1 143:1 145:1 # 11661
0.0038324580938920841700900954407416 2:1 24:1 43:1 68:1 76:1 80:1 89:1 97:1 103:1 112:1 114:1 116:1 118:1 131:1 139:1 145:1 # 5311
0.0038324580938920841700900954407416 5:1 17:1 22:1 60:1 80:1 89:1 93:1 95:1 97:1 100:1 103:1 114:1 135:1 137:1 # 19213
0.0038324580938920841700900954407416 9:1 29:1 32:1 55:1 61:1 64:1 89:1 93:1 95:1 97:1 100:1 103:1 122:1 144:1 # 18714
-0.0038324580938920841700900954407416 18:1 39:1 60:1 64:1 89:1 93:1 95:1 97:1 100:1 103:1 115:1 144:1 145:1 # 29624
-0.00089952032480112372077318827479075 18:1 19:1 38:1 43:1 81:1 102:1 103:1 110:1 114:1 116:1 121:1 135:1 # 18391
0.0028686595086363534876094938397273 5:1 8:1 9:1 11:1 13:1 17:1 26:1 30:1 32:1 34:1 37:1 40:1 47:1 55:1 64:1 89:1 93:1 95:1 97:1 100:1 103:1 113:1 116:1 118:1 131:1 135:1 137:1 139:1 142:1 145:1 # 24629
0.0027211790494800240300388161074352 5:1 8:1 9:1 11:1 13:1 17:1 26:1 27:1 30:1 32:1 34:1 38:1 47:1 51:1 53:1 55:1 58:1 61:1 68:1 76:1 82:1 105:1 107:1 131:1 135:1 137:1 139:1 142:1 145:1 # 1831
0.00074153659984023455407214919787862 5:1 11:1 26:1 47:1 64:1 89:1 103:1 123:1 124:1 131:1 135:1 139:1 145:1 # 6725
-0.0038324580938920841700900954407416 5:1 13:1 19:1 26:1 29:1 30:1 32:1 34:1 38:1 47:1 55:1 61:1 68:1 76:1 82:1 105:1 126:1 131:1 137:1 139:1 145:1 # 664
0.00036941767154745862311582271786392 1:1 39:1 59:1 64:1 91:1 92:1 97:1 103:1 123:1 143:1 # 12520
0.0038324580938920841700900954407416 21:1 42:1 47:1 55:1 61:1 68:1 76:1 82:1 105:1 110:1 113:1 116:1 139:1 145:1 # 650
0.0038324580938920841700900954407416 5:1 9:1 11:1 38:1 39:1 47:1 73:1 89:1 97:1 103:1 110:1 117:1 118:1 122:1 123:1 124:1 140:1 # 1941
0.0038324580938920841700900954407416 17:1 39:1 59:1 64:1 102:1 122:1 142:1 # 8161
0.0038324580938920841700900954407416 5:1 38:1 60:1 64:1 91:1 92:1 97:1 103:1 111:1 144:1 145:1 # 14964
-0.0038324580938920841700900954407416 9:1 29:1 32:1 55:1 61:1 64:1 95:1 97:1 103:1 110:1 114:1 116:1 118:1 121:1 124:1 143:1 # 12591
-0.0038324580938920841700900954407416 5:1 35:1 60:1 64:1 90:1 110:1 114:1 116:1 118:1 121:1 124:1 137:1 # 4911
-0.0027592226054611724943288475486725 5:1 9:1 35:1 58:1 64:1 89:1 93:1 95:1 97:1 100:1 103:1 110:1 114:1 116:1 118:1 121:1 124:1 140:1 # 11685
0.0013432307687743511980665855887196 5:1 13:1 19:1 26:1 29:1 30:1 32:1 34:1 38:1 47:1 55:1 61:1 68:1 72:1 74:1 76:1 79:1 82:1 105:1 107:1 131:1 135:1 137:1 139:1 142:1 145:1 # 1324
0.0018814465676494670880181114824836 5:1 13:1 19:1 26:1 29:1 30:1 32:1 34:1 38:1 47:1 55:1 61:1 68:1 76:1 82:1 105:1 107:1 131:1 135:1 137:1 139:1 142:1 145:1 # 1193
-0.0016411596970796723041208231563814 13:1 19:1 28:1 30:1 34:1 38:1 47:1 59:1 64:1 102:1 122:1 135:1 # 11252
-0.0029252452451190577922823798928675 17:1 39:1 47:1 64:1 89:1 92:1 93:1 95:1 97:1 101:1 111:1 112:1 113:1 116:1 144:1 # 6495
-0.0038324580938920841700900954407416 17:1 26:1 33:1 47:1 64:1 105:1 113:1 124:1 131:1 135:1 137:1 139:1 142:1 145:1 # 4864
0.0038324580938920841700900954407416 17:1 26:1 33:1 47:1 64:1 101:1 110:1 118:1 122:1 143:1 # 4423
0.0035791589006843975429017490341721 5:1 11:1 13:1 19:1 35:1 53:1 64:1 90:1 103:1 110:1 114:1 116:1 118:1 121:1 124:1 140:1 # 16757
0.0031831247182448315150016249219789 21:1 42:1 51:1 55:1 61:1 68:1 72:1 74:1 76:1 79:1 82:1 105:1 111:1 118:1 124:1 131:1 # 2303
0.00043124889642140722557234200351672 5:1 9:1 11:1 13:1 16:1 19:1 28:1 30:1 32:1 34:1 47:1 64:1 90:1 103:1 116:1 131:1 # 3694
0.0038324580938920841700900954407416 17:1 26:1 30:1 32:1 34:1 37:1 40:1 59:1 64:1 95:1 97:1 103:1 119:1 132:1 # 12460
0.0038324580938920841700900954407416 1:1 39:1 59:1 64:1 89:1 93:1 95:1 97:1 100:1 103:1 122:1 144:1 # 11526
0.0038324580938920841700900954407416 5:1 11:1 13:1 26:1 47:1 51:1 64:1 86:1 106:1 131:1 135:1 137:1 139:1 142:1 145:1 # 925
0.0026227318463381017049629306825409 1:1 39:1 59:1 64:1 89:1 93:1 95:1 97:1 100:1 103:1 122:1 131:1 135:1 137:1 139:1 142:1 145:1 # 10319
0.0038324580938920841700900954407416 6:1 32:1 40:1 47:1 64:1 90:1 103:1 118:1 124:1 131:1 135:1 137:1 139:1 142:1 145:1 # 5120
-0.0038324580938920841700900954407416 14:1 26:1 30:1 32:1 34:1 37:1 40:1 47:1 55:1 57:1 61:1 64:1 97:1 103:1 118:1 122:1 131:1 135:1 137:1 139:1 142:1 145:1 # 4351
-0.0038324580938920841700900954407416 17:1 26:1 30:1 32:1 34:1 37:1 40:1 50:1 55:1 64:1 97:1 103:1 122:1 131:1 135:1 137:1 139:1 142:1 145:1 # 3490
-0.0038324580938920841700900954407416 17:1 26:1 47:1 48:1 53:1 59:1 64:1 102:1 103:1 119:1 131:1 135:1 137:1 139:1 142:1 145:1 # 13438
0.0038324580938920841700900954407416 9:1 29:1 32:1 47:1 51:1 53:1 55:1 58:1 61:1 64:1 95:1 97:1 103:1 110:1 114:1 116:1 118:1 121:1 124:1 131:1 139:1 145:1 # 18587
0.0038324580938920841700900954407416 9:1 11:1 29:1 32:1 55:1 61:1 64:1 89:1 97:1 103:1 110:1 114:1 116:1 121:1 144:1 145:1 # 25774
0.0038324580938920841700900954407416 9:1 29:1 32:1 47:1 51:1 53:1 55:1 58:1 61:1 64:1 89:1 93:1 95:1 97:1 100:1 103:1 118:1 124:1 144:1 # 18816
0.0038324580938920841700900954407416 18:1 26:1 59:1 66:1 105:1 126:1 135:1 145:1 # 1531
-0.0038324580938920841700900954407416 5:1 29:1 32:1 34:1 47:1 48:1 51:1 53:1 54:1 55:1 59:1 61:1 64:1 89:1 93:1 95:1 97:1 100:1 103:1 112:1 114:1 116:1 118:1 142:1 145:1 # 10622
-0.0024110271198339605115690265080275 5:1 9:1 11:1 16:1 26:1 29:1 30:1 32:1 34:1 38:1 47:1 55:1 57:1 61:1 64:1 89:1 93:1 95:1 100:1 110:1 114:1 144:1 145:1 # 11202
-0.0038324580938920841700900954407416 11:1 30:1 32:1 47:1 53:1 55:1 59:1 61:1 64:1 89:1 110:1 114:1 116:1 132:1 # 12934
0.0038324580938920841700900954407416 2:1 26:1 30:1 32:1 34:1 37:1 40:1 55:1 61:1 66:1 105:1 126:1 131:1 135:1 137:1 139:1 142:1 145:1 # 1715
0.0038324580938920841700900954407416 5:1 9:1 11:1 16:1 22:1 59:1 64:1 89:1 93:1 95:1 97:1 100:1 103:1 113:1 116:1 118:1 131:1 135:1 137:1 139:1 142:1 145:1 # 22259
-0.00081913172169951553938660460119081 5:1 29:1 32:1 47:1 51:1 53:1 55:1 58:1 61:1 76:1 82:1 102:1 115:1 135:1 # 24957
0.0038324580938920841700900954407416 5:1 26:1 29:1 30:1 32:1 34:1 38:1 47:1 51:1 53:1 55:1 58:1 61:1 64:1 101:1 110:1 111:1 114:1 116:1 117:1 118:1 122:1 124:1 143:1 # 8187
-0.0038324580938920841700900954407416 5:1 9:1 22:1 44:1 64:1 89:1 93:1 95:1 97:1 100:1 103:1 110:1 133:1 135:1 137:1 139:1 # 927
-0.0029208359451657881812602912674492 5:1 9:1 11:1 16:1 26:1 43:1 81:1 89:1 93:1 95:1 97:1 100:1 103:1 113:1 116:1 118:1 131:1 135:1 137:1 142:1 # 19123
-0.0038324580938920841700900954407416 11:1 34:1 40:1 47:1 51:1 64:1 105:1 110:1 118:1 124:1 134:1 137:1 # 5355
0.0038324580938920841700900954407416 14:1 28:1 30:1 32:1 34:1 47:1 51:1 53:1 55:1 58:1 61:1 64:1 89:1 97:1 103:1 110:1 118:1 124:1 140:1 # 1573
0.0038324580938920841700900954407416 1:1 42:1 47:1 51:1 53:1 55:1 58:1 61:1 73:1 89:1 93:1 95:1 97:1 103:1 112:1 114:1 116:1 118:1 131:1 137:1 # 4155
0.0038324580938920841700900954407416 18:1 38:1 47:1 53:1 55:1 59:1 61:1 64:1 89:1 93:1 103:1 110:1 114:1 116:1 140:1 # 14722
0.003158654195693154712043515530695 5:1 29:1 32:1 34:1 60:1 61:1 64:1 89:1 93:1 95:1 97:1 100:1 103:1 110:1 114:1 135:1 # 10362
-0.0038324580938920841700900954407416 9:1 29:1 32:1 47:1 51:1 53:1 55:1 58:1 61:1 64:1 97:1 103:1 110:1 118:1 124:1 140:1 # 16944
-0.0038324580938920841700900954407416 18:1 38:1 47:1 51:1 53:1 55:1 58:1 61:1 80:1 97:1 103:1 113:1 114:1 116:1 144:1 # 31100
0.0038324580938920841700900954407416 5:1 9:1 11:1 16:1 26:1 43:1 80:1 95:1 103:1 119:1 131:1 134:1 135:1 137:1 # 2675
0.0038324580938920841700900954407416 13:1 19:1 32:1 34:1 40:1 59:1 64:1 92:1 97:1 103:1 110:1 114:1 116:1 121:1 140:1 # 22926
-0.003476509617466277349967507248607 17:1 28:1 34:1 53:1 55:1 61:1 80:1 95:1 103:1 110:1 143:1 # 5107
-0.0038324580938920841700900954407416 5:1 9:1 11:1 16:1 29:1 32:1 34:1 60:1 61:1 64:1 89:1 92:1 97:1 103:1 114:1 135:1 137:1 # 10962
-0.0002832480351037514445036724630711 8:1 11:1 39:1 47:1 71:1 74:1 76:1 89:1 93:1 95:1 97:1 100:1 103:1 110:1 117:1 118:1 122:1 123:1 124:1 135:1 137:1 # 23959
0.00047667015936446005238205647636107 5:1 9:1 11:1 13:1 16:1 19:1 26:1 40:1 47:1 64:1 91:1 92:1 97:1 103:1 110:1 140:1 # 15045
0.0038324580938920841700900954407416 9:1 22:1 47:1 51:1 53:1 55:1 58:1 61:1 73:1 97:1 102:1 103:1 113:1 116:1 118:1 144:1 # 4275
0.0038324580938920841700900954407416 2:1 39:1 45:1 64:1 102:1 110:1 114:1 116:1 118:1 121:1 124:1 135:1 # 26312
0.0038324580938920841700900954407416 18:1 38:1 47:1 51:1 53:1 58:1 64:1 102:1 122:1 144:1 # 26544
-0.0015111452657821501741747249880632 5:1 29:1 32:1 34:1 51:1 74:1 86:1 123:1 129:1 # 26219
0.0038324580938920841700900954407416 5:1 9:1 11:1 16:1 29:1 32:1 55:1 61:1 64:1 89:1 97:1 103:1 114:1 137:1 # 20746
0.0025349582395582524914356969958362 5:1 9:1 11:1 28:1 29:1 32:1 34:1 60:1 61:1 64:1 89:1 97:1 103:1 110:1 135:1 # 30284
-0.0038324580938920841700900954407416 14:1 28:1 30:1 32:1 34:1 47:1 51:1 53:1 55:1 58:1 61:1 64:1 89:1 93:1 95:1 97:1 100:1 103:1 122:1 139:1 144:1 145:1 # 16689
-0.0038324580938920841700900954407416 18:1 29:1 32:1 60:1 64:1 90:1 103:1 110:1 116:1 131:1 137:1 # 230
-0.0038324580938920841700900954407416 9:1 26:1 29:1 30:1 32:1 34:1 38:1 47:1 61:1 64:1 102:1 110:1 118:1 122:1 124:1 143:1 # 11017
0.0038324580938920841700900954407416 5:1 9:1 11:1 13:1 16:1 19:1 22:1 47:1 61:1 73:1 95:1 103:1 110:1 133:1 135:1 137:1 139:1 # 4203
0.0038324580938920841700900954407416 5:1 13:1 19:1 38:1 47:1 55:1 57:1 61:1 64:1 89:1 93:1 95:1 97:1 100:1 103:1 123:1 131:1 139:1 145:1 # 15637
0.0036855308302214313288802660650845 7:1 9:1 11:1 13:1 39:1 40:1 47:1 55:1 61:1 68:1 76:1 82:1 105:1 111:1 124:1 131:1 # 263
-0.0038324580938920841700900954407416 5:1 38:1 47:1 51:1 53:1 58:1 64:1 92:1 95:1 114:1 131:1 132:1 135:1 137:1 139:1 143:1 # 10714
-0.0023739255432396826582530646732039 8:1 11:1 26:1 32:1 60:1 61:1 72:1 102:1 103:1 122:1 131:1 # 16120
-0.0038324580938920841700900954407416 5:1 9:1 11:1 13:1 16:1 19:1 35:1 55:1 61:1 64:1 89:1 97:1 103:1 119:1 131:1 135:1 137:1 139:1 142:1 145:1 # 13001
0.0038324580938920841700900954407416 3:1 26:1 29:1 32:1 47:1 51:1 53:1 55:1 58:1 61:1 64:1 101:1 110:1 118:1 122:1 124:1 143:1 # 5732
0.0038324580938920841700900954407416 9:1 29:1 32:1 47:1 51:1 53:1 55:1 58:1 61:1 64:1 89:1 93:1 95:1 97:1 100:1 103:1 122:1 144:1 145:1 # 25516
0.0038324580938920841700900954407416 9:1 26:1 29:1 30:1 32:1 34:1 38:1 47:1 51:1 64:1 102:1 122:1 131:1 135:1 137:1 142:1 # 16468
-0.0038324580938920841700900954407416 2:1 26:1 30:1 32:1 34:1 37:1 40:1 47:1 51:1 53:1 55:1 58:1 61:1 64:1 89:1 93:1 95:1 97:1 100:1 103:1 106:1 144:1 # 3723
0.0038324580938920841700900954407416 5:1 35:1 53:1 64:1 89:1 97:1 103:1 113:1 116:1 118:1 131:1 135:1 137:1 139:1 142:1 145:1 # 7991
-0.0038324580938920841700900954407416 18:1 38:1 47:1 53:1 55:1 59:1 61:1 64:1 89:1 93:1 103:1 111:1 131:1 # 12892
-0.0038324580938920841700900954407416 9:1 26:1 29:1 30:1 32:1 34:1 38:1 47:1 51:1 53:1 58:1 64:1 102:1 119:1 131:1 # 12909
-0.0038324580938920841700900954407416 9:1 29:1 32:1 47:1 64:1 105:1 111:1 124:1 131:1 135:1 137:1 139:1 142:1 145:1 # 4952
-0.0038324580938920841700900954407416 6:1 26:1 30:1 32:1 37:1 47:1 64:1 105:1 126:1 131:1 145:1 # 5498
-0.0038324580938920841700900954407416 9:1 29:1 32:1 58:1 61:1 64:1 97:1 103:1 112:1 114:1 118:1 122:1 131:1 143:1 # 20357
0.0038324580938920841700900954407416 5:1 13:1 19:1 26:1 30:1 32:1 34:1 37:1 40:1 47:1 55:1 61:1 64:1 89:1 93:1 95:1 97:1 100:1 103:1 123:1 144:1 145:1 # 25796
0.0038324580938920841700900954407416 8:1 11:1 26:1 30:1 32:1 34:1 37:1 40:1 55:1 61:1 64:1 89:1 93:1 95:1 97:1 100:1 103:1 122:1 144:1 145:1 # 25259
0.0011883321225705926246080101904568 8:1 11:1 26:1 30:1 32:1 34:1 37:1 40:1 47:1 55:1 61:1 64:1 89:1 93:1 95:1 97:1 100:1 103:1 110:1 118:1 122:1 124:1 143:1 # 25388
0.0038324580938920841700900954407416 13:1 19:1 35:1 55:1 61:1 64:1 105:1 112:1 113:1 118:1 124:1 131:1 132:1 135:1 137:1 139:1 143:1 # 2946
0.0038324580938920841700900954407416 5:1 9:1 11:1 13:1 16:1 19:1 42:1 63:1 81:1 82:1 105:1 110:1 113:1 116:1 131:1 139:1 145:1 # 797
-0.0038324580938920841700900954407416 13:1 19:1 26:1 30:1 32:1 34:1 37:1 40:1 47:1 53:1 55:1 59:1 61:1 64:1 89:1 93:1 95:1 97:1 100:1 103:1 119:1 139:1 145:1 # 4374
0.0038324580938920841700900954407416 5:1 13:1 19:1 29:1 32:1 34:1 55:1 61:1 64:1 89:1 103:1 110:1 116:1 131:1 135:1 137:1 139:1 142:1 145:1 # 17010
0.0038324580938920841700900954407416 18:1 26:1 47:1 51:1 53:1 58:1 64:1 97:1 103:1 110:1 118:1 124:1 127:1 # 11422
0.0038324580938920841700900954407416 18:1 26:1 59:1 66:1 105:1 126:1 131:1 139:1 145:1 # 1333
0.0038324580938920841700900954407416 18:1 26:1 59:1 66:1 105:1 126:1 132:1 145:1 # 985
-0.0038324580938920841700900954407416 5:1 9:1 11:1 29:1 32:1 34:1 55:1 61:1 64:1 102:1 103:1 122:1 144:1 145:1 # 26393
-0.0031196867850176428910158321627932 5:1 8:1 9:1 11:1 13:1 17:1 39:1 43:1 84:1 105:1 116:1 118:1 124:1 131:1 135:1 139:1 145:1 # 1032
-0.0033719326104452119682863830973929 1:1 42:1 47:1 55:1 61:1 73:1 95:1 97:1 103:1 110:1 113:1 116:1 134:1 137:1 139:1 # 2259
-0.0025879476117497070448980611701018 5:1 26:1 30:1 32:1 34:1 37:1 40:1 47:1 51:1 53:1 58:1 76:1 82:1 101:1 110:1 118:1 122:1 124:1 143:1 # 18852
-0.0013952544323711144579058807124738 17:1 39:1 47:1 68:1 101:1 110:1 114:1 116:1 122:1 143:1 # 22135
0.00011562349080626405323311139961007 18:1 26:1 27:1 30:1 32:1 33:1 34:1 38:1 40:1 47:1 51:1 53:1 58:1 64:1 89:1 97:1 103:1 110:1 133:1 135:1 137:1 139:1 # 19361
0.0014656718978816266757414510379931 17:1 26:1 32:1 34:1 38:1 40:1 59:1 64:1 89:1 103:1 113:1 131:1 # 8452
0.00087681045942187587054900133054502 17:1 26:1 30:1 32:1 34:1 37:1 40:1 59:1 64:1 92:1 95:1 97:1 103:1 119:1 131:1 # 22404
0.0038324580938920841700900954407416 5:1 13:1 19:1 42:1 63:1 81:1 82:1 105:1 110:1 113:1 116:1 144:1 145:1 # 695
0.0038324580938920841700900954407416 7:1 8:1 11:1 13:1 27:1 32:1 47:1 64:1 102:1 122:1 131:1 139:1 145:1 # 5481
0.0038324580938920841700900954407416 9:1 11:1 29:1 32:1 60:1 61:1 64:1 105:1 111:1 112:1 118:1 124:1 131:1 145:1 # 7580
0.0038324580938920841700900954407416 11:1 26:1 32:1 43:1 80:1 89:1 103:1 113:1 116:1 132:1 # 5206
-0.0038324580938920841700900954407416 8:1 11:1 27:1 58:1 61:1 64:1 89:1 97:1 103:1 112:1 114:1 116:1 118:1 131:1 139:1 145:1 # 4440
-0.0038324580938920841700900954407416 18:1 19:1 38:1 60:1 64:1 89:1 93:1 95:1 97:1 100:1 103:1 123:1 124:1 131:1 # 13704
-0.0038324580938920841700900954407416 7:1 8:1 11:1 13:1 39:1 47:1 64:1 89:1 95:1 113:1 116:1 131:1 # 7540
-0.00080214750031453450115209724557985 5:1 26:1 29:1 30:1 32:1 34:1 38:1 51:1 53:1 68:1 90:1 95:1 113:1 116:1 118:1 131:1 # 2341
0.0038324580938920841700900954407416 8:1 11:1 13:1 26:1 30:1 32:1 37:1 47:1 51:1 53:1 55:1 58:1 61:1 64:1 102:1 103:1 119:1 144:1 145:1 # 6062
0.0012489768942485716257673189488742 5:1 8:1 9:1 11:1 13:1 17:1 26:1 27:1 30:1 32:1 34:1 38:1 47:1 51:1 53:1 55:1 58:1 61:1 68:1 76:1 82:1 105:1 110:1 113:1 116:1 135:1 139:1 145:1 # 683
0.0038324580938920841700900954407416 1:1 39:1 43:1 81:1 89:1 93:1 97:1 103:1 123:1 131:1 135:1 137:1 139:1 142:1 145:1 # 8168
0.0038324580938920841700900954407416 18:1 38:1 55:1 61:1 64:1 95:1 103:1 119:1 132:1 # 21118
-0.0038324580938920841700900954407416 11:1 26:1 30:1 32:1 51:1 53:1 64:1 105:1 116:1 124:1 140:1 # 5268
-0.00022157523761826892517989850972526 6:1 26:1 30:1 32:1 47:1 51:1 53:1 55:1 58:1 61:1 73:1 102:1 103:1 110:1 113:1 114:1 116:1 118:1 122:1 144:1 145:1 # 10028
0.0038324580938920841700900954407416 1:1 39:1 47:1 51:1 55:1 61:1 81:1 89:1 93:1 95:1 97:1 100:1 103:1 114:1 131:1 139:1 145:1 # 8170
0.0025846637846991217177250454994919 18:1 38:1 60:1 61:1 64:1 95:1 97:1 103:1 119:1 132:1 # 21152
0.0038324580938920841700900954407416 1:1 39:1 43:1 81:1 89:1 93:1 97:1 103:1 123:1 131:1 139:1 145:1 # 8323
-0.0038324580938920841700900954407416 1:1 39:1 60:1 64:1 89:1 93:1 95:1 97:1 100:1 103:1 115:1 144:1 145:1 # 29148
-0.0005274632835568648795213086977185 5:1 13:1 19:1 26:1 34:1 40:1 56:1 68:1 90:1 110:1 131:1 # 2061
0.0038324580938920841700900954407416 5:1 9:1 26:1 47:1 64:1 102:1 110:1 114:1 116:1 118:1 121:1 124:1 131:1 # 17262
0.0038324580938920841700900954407416 5:1 6:1 9:1 11:1 12:1 13:1 17:1 19:1 38:1 59:1 64:1 101:1 110:1 116:1 118:1 122:1 124:1 143:1 # 8437
-0.0005922113953367841819586114837648 14:1 26:1 47:1 48:1 53:1 59:1 64:1 102:1 103:1 119:1 131:1 # 28288
-0.0038324580938920841700900954407416 5:1 9:1 30:1 47:1 51:1 53:1 58:1 64:1 97:1 103:1 123:1 124:1 143:1 # 11383
-0.0038324580938920841700900954407416 5:1 9:1 11:1 16:1 38:1 47:1 61:1 64:1 102:1 110:1 111:1 114:1 116:1 117:1 118:1 122:1 124:1 143:1 # 4819
-0.0038324580938920841700900954407416 17:1 29:1 32:1 47:1 51:1 53:1 58:1 64:1 101:1 123:1 134:1 137:1 # 12196
0.0026569186556588482613083801453513 11:1 26:1 30:1 59:1 64:1 89:1 92:1 97:1 103:1 114:1 144:1 145:1 # 15755
1.6767978033745324249401131844195e-05 8:1 11:1 27:1 47:1 64:1 89:1 90:1 93:1 95:1 96:1 97:1 101:1 103:1 114:1 116:1 140:1 # 7501
0.0038324580938920841700900954407416 16:1 38:1 59:1 64:1 89:1 93:1 95:1 100:1 110:1 114:1 135:1 # 15199
-0.00073696768858496817210246287999098 8:1 11:1 13:1 26:1 40:1 60:1 61:1 68:1 72:1 76:1 82:1 92:1 111:1 131:1 137:1 143:1 144:1 # 6766
-0.0038324580938920841700900954407416 5:1 6:1 9:1 11:1 13:1 17:1 32:1 51:1 81:1 89:1 93:1 95:1 97:1 100:1 103:1 110:1 114:1 134:1 137:1 139:1 # 8695
-0.00087478798436770065834883203237382 8:1 11:1 26:1 30:1 32:1 47:1 50:1 51:1 53:1 69:1 89:1 93:1 95:1 97:1 100:1 103:1 110:1 114:1 116:1 133:1 135:1 137:1 139:1 # 421
0.0038324580938920841700900954407416 9:1 29:1 32:1 47:1 51:1 53:1 55:1 58:1 61:1 64:1 102:1 103:1 122:1 131:1 135:1 137:1 142:1 # 18759
0.0038324580938920841700900954407416 9:1 29:1 32:1 47:1 51:1 53:1 55:1 58:1 61:1 64:1 97:1 103:1 123:1 124:1 143:1 # 25525
0.0038324580938920841700900954407416 18:1 19:1 29:1 32:1 47:1 51:1 53:1 58:1 64:1 102:1 103:1 119:1 144:1 145:1 # 15823
-0.0038324580938920841700900954407416 5:1 9:1 11:1 16:1 29:1 30:1 32:1 47:1 55:1 61:1 64:1 97:1 103:1 122:1 131:1 138:1 # 5371
-0.0038324580938920841700900954407416 18:1 29:1 32:1 47:1 55:1 59:1 61:1 64:1 89:1 93:1 95:1 100:1 114:1 135:1 # 11194
-0.0038324580938920841700900954407416 9:1 11:1 29:1 32:1 55:1 61:1 64:1 97:1 103:1 118:1 124:1 127:1 # 16932
0.0038324580938920841700900954407416 1:1 39:1 47:1 51:1 55:1 61:1 81:1 89:1 97:1 103:1 110:1 114:1 134:1 137:1 139:1 # 8325
0.0038324580938920841700900954407416 1:1 39:1 47:1 51:1 55:1 61:1 81:1 95:1 97:1 103:1 110:1 134:1 137:1 139:1 # 6839
0.0038324580938920841700900954407416 18:1 19:1 26:1 30:1 32:1 37:1 47:1 51:1 73:1 105:1 126:1 134:1 139:1 145:1 # 450
-0.0038324580938920841700900954407416 1:1 42:1 47:1 51:1 53:1 55:1 58:1 61:1 81:1 82:1 89:1 103:1 110:1 114:1 116:1 121:1 131:1 135:1 137:1 142:1 # 2544
-0.0038324580938920841700900954407416 12:1 26:1 43:1 80:1 105:1 126:1 131:1 139:1 145:1 # 962
-0.0038324580938920841700900954407416 8:1 11:1 13:1 26:1 27:1 30:1 32:1 34:1 38:1 47:1 61:1 64:1 102:1 103:1 106:1 132:1 145:1 # 10930
0.0038324580938920841700900954407416 5:1 8:1 9:1 11:1 13:1 17:1 26:1 47:1 64:1 89:1 95:1 97:1 103:1 118:1 124:1 140:1 # 26023
0.0038324580938920841700900954407416 5:1 6:1 9:1 11:1 13:1 17:1 32:1 47:1 51:1 64:1 89:1 93:1 95:1 100:1 114:1 137:1 # 4128
0.0038324580938920841700900954407416 9:1 11:1 29:1 32:1 55:1 61:1 64:1 89:1 93:1 95:1 97:1 100:1 103:1 110:1 134:1 # 26041
-0.0038324580938920841700900954407416 1:1 39:1 60:1 64:1 89:1 93:1 95:1 97:1 100:1 103:1 115:1 144:1 145:1 # 29089
-0.0038324580938920841700900954407416 5:1 13:1 19:1 35:1 47:1 64:1 89:1 90:1 95:1 97:1 101:1 103:1 115:1 144:1 # 21248
-0.0038324580938920841700900954407416 5:1 13:1 19:1 22:1 47:1 55:1 57:1 61:1 64:1 95:1 97:1 103:1 110:1 118:1 124:1 134:1 137:1 139:1 # 11838
-0.00050812213910006128782248513431341 14:1 34:1 40:1 56:1 76:1 82:1 85:1 126:1 132:1 139:1 145:1 # 4379
7.2180548713525480102569387153011e-05 18:1 38:1 47:1 53:1 55:1 59:1 61:1 64:1 90:1 103:1 113:1 116:1 131:1 # 23088
-0.001360393347613855124025872278537 5:1 9:1 26:1 47:1 51:1 77:1 95:1 110:1 132:1 # 6224
0.0016114728574971903026641362188798 18:1 38:1 47:1 53:1 55:1 59:1 61:1 64:1 92:1 97:1 103:1 110:1 114:1 140:1 # 24575
-0.00083527359871132377412000780125823 2:1 26:1 34:1 38:1 40:1 59:1 66:1 89:1 92:1 95:1 122:1 143:1 # 6393
-0.0038324580938920841700900954407416 18:1 38:1 47:1 53:1 55:1 59:1 61:1 64:1 89:1 93:1 95:1 100:1 110:1 114:1 135:1 # 12021
-0.0038324580938920841700900954407416 18:1 29:1 32:1 47:1 51:1 53:1 58:1 64:1 102:1 119:1 139:1 145:1 # 12201
-0.0038324580938920841700900954407416 7:1 9:1 13:1 17:1 22:1 47:1 59:1 64:1 102:1 114:1 117:1 135:1 137:1 # 4719
0.0038324580938920841700900954407416 5:1 9:1 30:1 51:1 64:1 89:1 93:1 95:1 97:1 100:1 103:1 115:1 139:1 144:1 145:1 # 4273
0.0038324580938920841700900954407416 13:1 19:1 35:1 55:1 61:1 64:1 90:1 103:1 116:1 118:1 124:1 139:1 145:1 # 15232
0.0038324580938920841700900954407416 5:1 9:1 11:1 13:1 16:1 19:1 35:1 55:1 61:1 64:1 92:1 97:1 103:1 111:1 134:1 137:1 # 22476
-0.0038324580938920841700900954407416 5:1 9:1 11:1 13:1 16:1 19:1 26:1 34:1 40:1 55:1 61:1 64:1 89:1 95:1 97:1 103:1 116:1 118:1 124:1 140:1 # 13915
-0.00025405865852301529181009320801365 9:1 28:1 34:1 51:1 53:1 68:1 95:1 111:1 137:1 # 209
-0.0038324580938920841700900954407416 5:1 9:1 11:1 13:1 16:1 19:1 34:1 40:1 55:1 61:1 64:1 97:1 103:1 119:1 131:1 135:1 137:1 139:1 142:1 145:1 # 13221
0.0038324580938920841700900954407416 17:1 26:1 33:1 47:1 64:1 102:1 110:1 137:1 # 19054
0.0038324580938920841700900954407416 5:1 13:1 15:1 19:1 22:1 47:1 51:1 53:1 58:1 64:1 102:1 110:1 114:1 116:1 131:1 # 8684
0.0038324580938920841700900954407416 5:1 30:1 53:1 64:1 102:1 122:1 142:1 # 8316
-0.0038324580938920841700900954407416 1:1 39:1 60:1 64:1 89:1 93:1 95:1 97:1 100:1 103:1 115:1 144:1 145:1 # 29117
-0.0038324580938920841700900954407416 5:1 26:1 30:1 43:1 84:1 105:1 110:1 113:1 116:1 131:1 145:1 # 821
-0.0038324580938920841700900954407416 14:1 26:1 47:1 48:1 53:1 59:1 64:1 102:1 103:1 122:1 144:1 # 28190
-0.0025062484384121177898030463637724 5:1 9:1 11:1 30:1 32:1 43:1 84:1 95:1 103:1 119:1 132:1 # 5269
0.0007365730181892317200709197066999 5:1 9:1 11:1 13:1 16:1 19:1 26:1 34:1 40:1 47:1 55:1 61:1 64:1 90:1 103:1 114:1 135:1 139:1 145:1 # 2186
0.0021545511799859946334978477722188 5:1 9:1 11:1 13:1 16:1 19:1 26:1 29:1 30:1 32:1 34:1 38:1 55:1 61:1 64:1 89:1 92:1 97:1 103:1 114:1 131:1 135:1 # 24818
-0.0038324580938920841700900954407416 9:1 29:1 32:1 55:1 61:1 64:1 97:1 103:1 107:1 131:1 135:1 137:1 139:1 142:1 145:1 # 9810
-0.0029652829510100949667039671453495 5:1 9:1 11:1 13:1 16:1 19:1 28:1 30:1 34:1 38:1 47:1 59:1 64:1 101:1 110:1 114:1 116:1 118:1 121:1 124:1 133:1 135:1 139:1 143:1 # 10311
0.0038324580938920841700900954407416 10:1 39:1 40:1 59:1 64:1 102:1 103:1 119:1 144:1 145:1 # 21874
0.0038324580938920841700900954407416 14:1 39:1 43:1 80:1 105:1 107:1 131:1 135:1 137:1 139:1 142:1 145:1 # 976
0.0038324580938920841700900954407416 18:1 19:1 35:1 53:1 64:1 89:1 93:1 95:1 97:1 100:1 103:1 122:1 144:1 # 11728
-0.0038324580938920841700900954407416 14:1 26:1 47:1 48:1 53:1 59:1 64:1 102:1 103:1 122:1 144:1 # 28262
-0.0038324580938920841700900954407416 8:1 11:1 39:1 47:1 64:1 92:1 93:1 95:1 111:1 117:1 131:1 135:1 # 7488
-0.0038324580938920841700900954407416 8:1 11:1 26:1 50:1 55:1 64:1 90:1 110:1 114:1 116:1 121:1 140:1 # 3631
-0.0038324580938920841700900954407416 14:1 26:1 40:1 58:1 61:1 64:1 90:1 103:1 118:1 124:1 143:1 # 11971
-7.8431145738275040023464168559286e-05 1:1 28:1 30:1 32:1 34:1 58:1 61:1 64:1 101:1 110:1 114:1 116:1 118:1 121:1 124:1 143:1 # 25815
0.0036385604350571867753039168036366 5:1 11:1 26:1 30:1 32:1 37:1 47:1 64:1 89:1 97:1 103:1 118:1 123:1 124:1 140:1 # 2000
-0.0038324580938920841700900954407416 5:1 29:1 32:1 34:1 55:1 61:1 64:1 89:1 93:1 95:1 97:1 100:1 103:1 110:1 114:1 116:1 118:1 121:1 124:1 143:1 # 11307
-0.0038324580938920841700900954407416 5:1 29:1 32:1 34:1 55:1 61:1 64:1 97:1 103:1 110:1 114:1 116:1 118:1 121:1 124:1 143:1 # 11326
-0.0038324580938920841700900954407416 9:1 29:1 32:1 55:1 61:1 64:1 89:1 93:1 95:1 97:1 100:1 103:1 110:1 114:1 116:1 118:1 121:1 124:1 143:1 # 15919
0.0038324580938920841700900954407416 8:1 11:1 39:1 47:1 64:1 102:1 115:1 131:1 # 16066
0.0038324580938920841700900954407416 16:1 22:1 60:1 64:1 105:1 111:1 124:1 131:1 # 2850
0.0038324580938920841700900954407416 8:1 11:1 13:1 17:1 26:1 47:1 64:1 89:1 93:1 95:1 100:1 114:1 135:1 137:1 # 30669
-0.0038324580938920841700900954407416 8:1 11:1 26:1 30:1 32:1 37:1 47:1 64:1 101:1 116:1 124:1 140:1 # 2674
-0.0009110356803175277164152934261665 5:1 11:1 13:1 17:1 19:1 38:1 43:1 68:1 82:1 92:1 110:1 135:1 # 8453
-0.0035738321716872909969420213371905 8:1 11:1 13:1 26:1 30:1 34:1 40:1 45:1 84:1 105:1 113:1 118:1 124:1 132:1 # 843
0.0038324580938920841700900954407416 13:1 19:1 32:1 34:1 40:1 47:1 55:1 61:1 64:1 89:1 93:1 95:1 97:1 100:1 103:1 110:1 114:1 116:1 121:1 143:1 # 9860
0.0022175724812894385441774947054228 5:1 29:1 32:1 55:1 61:1 64:1 89:1 90:1 93:1 95:1 96:1 97:1 101:1 103:1 110:1 114:1 116:1 121:1 131:1 135:1 # 9996
-0.00041547686369056054936019228840394 7:1 9:1 11:1 13:1 39:1 53:1 80:1 85:1 126:1 132:1 145:1 # 2808
-0.0038324580938920841700900954407416 1:1 34:1 40:1 47:1 55:1 61:1 64:1 89:1 93:1 95:1 100:1 110:1 114:1 116:1 118:1 121:1 124:1 143:1 # 11425
-0.0038324580938920841700900954407416 1:1 34:1 40:1 47:1 55:1 59:1 61:1 64:1 97:1 103:1 110:1 113:1 114:1 116:1 118:1 122:1 139:1 145:1 # 9892
-1.5421373409558455447668223747826e-05 17:1 39:1 47:1 51:1 80:1 91:1 97:1 116:1 118:1 124:1 143:1 # 5104
0.0038324580938920841700900954407416 17:1 26:1 32:1 59:1 64:1 102:1 122:1 142:1 # 8484
0.0038324580938920841700900954407416 5:1 9:1 11:1 13:1 16:1 19:1 35:1 55:1 61:1 64:1 105:1 110:1 118:1 124:1 137:1 # 4432
0.0038324580938920841700900954407416 9:1 11:1 26:1 59:1 64:1 101:1 110:1 116:1 118:1 122:1 124:1 143:1 # 6980
-0.0028378523786739750719987362970187 5:1 11:1 13:1 19:1 26:1 40:1 47:1 55:1 61:1 84:1 105:1 111:1 124:1 131:1 137:1 # 2142
-0.0038324580938920841700900954407416 5:1 28:1 30:1 32:1 34:1 60:1 64:1 90:1 116:1 131:1 135:1 137:1 139:1 142:1 145:1 # 4931
-0.0010175174046225098772877615260768 6:1 12:1 30:1 47:1 71:1 74:1 76:1 90:1 118:1 124:1 131:1 # 8734
0.0038324580938920841700900954407416 1:1 34:1 40:1 55:1 61:1 64:1 90:1 103:1 110:1 114:1 116:1 121:1 140:1 # 16902
0.0038324580938920841700900954407416 6:1 34:1 40:1 47:1 55:1 61:1 64:1 89:1 93:1 95:1 97:1 100:1 103:1 114:1 118:1 124:1 131:1 139:1 145:1 # 18787
-0.0038324580938920841700900954407416 5:1 38:1 47:1 51:1 53:1 58:1 64:1 89:1 93:1 95:1 97:1 100:1 103:1 119:1 139:1 145:1 # 13417
-0.0038324580938920841700900954407416 5:1 38:1 58:1 64:1 89:1 93:1 95:1 97:1 100:1 103:1 112:1 114:1 118:1 122:1 131:1 143:1 # 12513
-0.0034574693784413098804342290293334 18:1 26:1 33:1 34:1 38:1 39:1 40:1 45:1 73:1 89:1 93:1 95:1 97:1 100:1 103:1 114:1 135:1 137:1 # 27571
0.0012924793314123173178231684943285 18:1 31:1 60:1 64:1 89:1 97:1 103:1 110:1 114:1 135:1 # 11940
-0.0038324580938920841700900954407416 8:1 11:1 26:1 30:1 32:1 37:1 47:1 55:1 61:1 64:1 89:1 93:1 95:1 100:1 112:1 118:1 131:1 139:1 145:1 # 14079
-0.0038324580938920841700900954407416 17:1 26:1 30:1 32:1 34:1 37:1 40:1 47:1 55:1 61:1 64:1 97:1 103:1 122:1 131:1 135:1 137:1 # 10246
0.0038324580938920841700900954407416 14:1 32:1 34:1 40:1 59:1 64:1 86:1 123:1 131:1 138:1 139:1 143:1 144:1 145:1 # 27566
0.0038324580938920841700900954407416 14:1 34:1 40:1 59:1 64:1 102:1 103:1 110:1 134:1 137:1 139:1 143:1 # 13103
0.0038324580938920841700900954407416 1:1 39:1 59:1 64:1 95:1 103:1 119:1 139:1 145:1 # 20627
-0.0038324580938920841700900954407416 14:1 39:1 58:1 61:1 64:1 102:1 110:1 134:1 137:1 139:1 # 23949
-0.0038324580938920841700900954407416 18:1 39:1 40:1 49:1 51:1 53:1 55:1 81:1 102:1 103:1 107:1 131:1 135:1 137:1 139:1 142:1 145:1 # 11236
-0.0038324580938920841700900954407416 17:1 39:1 56:1 64:1 101:1 110:1 118:1 124:1 143:1 # 9359
0.0038324580938920841700900954407416 5:1 26:1 47:1 51:1 53:1 55:1 58:1 61:1 64:1 97:1 103:1 112:1 114:1 116:1 118:1 131:1 # 29798
0.0038324580938920841700900954407416 5:1 30:1 47:1 51:1 53:1 58:1 64:1 89:1 93:1 95:1 100:1 116:1 135:1 137:1 # 10157
0.0013174046602596001329793518053179 8:1 11:1 26:1 30:1 32:1 34:1 37:1 40:1 55:1 61:1 64:1 89:1 93:1 95:1 97:1 100:1 103:1 118:1 124:1 131:1 # 25883
-0.0038324580938920841700900954407416 5:1 13:1 19:1 34:1 40:1 47:1 55:1 61:1 64:1 97:1 101:1 103:1 113:1 114:1 116:1 140:1 # 13326
-0.0037635471245793129108081487288473 5:1 9:1 11:1 13:1 29:1 32:1 34:1 47:1 55:1 57:1 61:1 64:1 89:1 93:1 95:1 100:1 123:1 131:1 139:1 141:1 145:1 # 11579
-0.0038324580938920841700900954407416 1:1 26:1 27:1 32:1 34:1 40:1 47:1 55:1 61:1 64:1 89:1 93:1 95:1 114:1 135:1 # 13119
0.0038324580938920841700900954407416 17:1 39:1 60:1 61:1 64:1 89:1 97:1 103:1 110:1 113:1 114:1 116:1 118:1 122:1 131:1 135:1 139:1 145:1 # 31015
0.0038324580938920841700900954407416 17:1 26:1 33:1 47:1 64:1 105:1 117:1 135:1 # 4228
0.0038324580938920841700900954407416 7:1 9:1 11:1 13:1 33:1 47:1 64:1 101:1 126:1 147:1 # 961
-0.0038324580938920841700900954407416 17:1 39:1 47:1 64:1 89:1 110:1 113:1 114:1 116:1 118:1 122:1 131:1 135:1 137:1 139:1 142:1 145:1 # 8216
0.00045948409512907222940550355794187 17:1 26:1 30:1 32:1 37:1 59:1 64:1 89:1 90:1 93:1 95:1 96:1 97:1 101:1 103:1 116:1 131:1 # 10770
0.0038324580938920841700900954407416 5:1 13:1 19:1 38:1 47:1 55:1 57:1 61:1 64:1 89:1 93:1 95:1 97:1 100:1 103:1 114:1 135:1 # 15723
0.0038324580938920841700900954407416 5:1 9:1 11:1 13:1 16:1 19:1 38:1 55:1 61:1 64:1 89:1 93:1 95:1 97:1 100:1 103:1 114:1 135:1 # 24481
0.0038324580938920841700900954407416 5:1 13:1 19:1 38:1 47:1 55:1 57:1 61:1 64:1 102:1 103:1 110:1 143:1 # 15586
-0.0011492042793545618594580615123846 5:1 9:1 11:1 13:1 16:1 19:1 38:1 47:1 51:1 53:1 55:1 58:1 61:1 64:1 89:1 97:1 103:1 106:1 144:1 # 3779
-0.0038324580938920841700900954407416 9:1 13:1 19:1 22:1 47:1 55:1 59:1 61:1 64:1 97:1 103:1 123:1 143:1 # 3735
-0.0038324580938920841700900954407416 1:1 26:1 60:1 61:1 64:1 97:1 103:1 114:1 135:1 # 12857
0.0038324580938920841700900954407416 5:1 29:1 32:1 47:1 55:1 61:1 64:1 89:1 103:1 113:1 116:1 118:1 131:1 135:1 137:1 139:1 142:1 145:1 # 4188
0.0038324580938920841700900954407416 5:1 9:1 11:1 29:1 32:1 34:1 47:1 64:1 102:1 122:1 131:1 135:1 137:1 142:1 # 26443
0.0038324580938920841700900954407416 5:1 26:1 29:1 30:1 32:1 34:1 38:1 47:1 64:1 101:1 110:1 114:1 116:1 118:1 121:1 124:1 143:1 # 4607
-0.0038324580938920841700900954407416 9:1 11:1 26:1 29:1 30:1 32:1 34:1 38:1 47:1 53:1 55:1 59:1 61:1 64:1 89:1 110:1 114:1 116:1 118:1 121:1 124:1 131:1 135:1 137:1 142:1 # 11718
-0.0015520275592208147147355035144756 5:1 9:1 11:1 16:1 26:1 30:1 32:1 51:1 69:1 102:1 103:1 110:1 114:1 116:1 121:1 131:1 135:1 # 446
-0.00078774445593388152213332187301376 1:1 39:1 47:1 68:1 76:1 82:1 89:1 95:1 97:1 103:1 110:1 114:1 116:1 118:1 121:1 124:1 131:1 135:1 # 18802
0.0038324580938920841700900954407416 13:1 19:1 26:1 34:1 40:1 55:1 61:1 64:1 97:1 103:1 110:1 135:1 139:1 # 20536
0.0038324580938920841700900954407416 5:1 9:1 11:1 13:1 16:1 19:1 22:1 58:1 61:1 64:1 92:1 95:1 97:1 103:1 110:1 114:1 134:1 137:1 # 3870
0.0038324580938920841700900954407416 13:1 19:1 26:1 34:1 40:1 55:1 61:1 64:1 89:1 93:1 95:1 97:1 100:1 103:1 123:1 124:1 143:1 # 25221
-0.0038324580938920841700900954407416 5:1 13:1 19:1 35:1 55:1 61:1 64:1 91:1 93:1 95:1 97:1 110:1 131:1 132:1 137:1 143:1 # 23741
-0.0038324580938920841700900954407416 13:1 19:1 35:1 47:1 55:1 61:1 64:1 89:1 95:1 103:1 119:1 131:1 139:1 145:1 # 13774
-0.0038324580938920841700900954407416 5:1 13:1 19:1 35:1 55:1 61:1 64:1 97:1 103:1 122:1 133:1 135:1 137:1 139:1 # 12059
0.0038324580938920841700900954407416 8:1 11:1 13:1 26:1 34:1 40:1 47:1 55:1 61:1 81:1 105:1 110:1 117:1 118:1 124:1 131:1 135:1 # 557
0.0038324580938920841700900954407416 8:1 11:1 38:1 39:1 47:1 64:1 102:1 110:1 114:1 116:1 121:1 131:1 135:1 137:1 139:1 142:1 145:1 # 26570
0.00079566755201685649811355061089557 14:1 39:1 47:1 51:1 53:1 58:1 64:1 101:1 110:1 116:1 118:1 122:1 124:1 143:1 # 6893
-0.0038324580938920841700900954407416 17:1 39:1 47:1 64:1 89:1 110:1 113:1 114:1 116:1 118:1 122:1 131:1 135:1 137:1 139:1 142:1 145:1 # 7009
-0.0038324580938920841700900954407416 13:1 19:1 22:1 47:1 48:1 53:1 59:1 64:1 102:1 103:1 110:1 114:1 116:1 118:1 121:1 124:1 136:1 # 17959
-0.0037513603488790840667643777806006 5:1 8:1 9:1 11:1 13:1 17:1 26:1 34:1 40:1 47:1 55:1 61:1 84:1 105:1 110:1 116:1 118:1 124:1 131:1 145:1 # 665
-0.0038324580938920841700900954407416 5:1 32:1 47:1 53:1 64:1 101:1 110:1 124:1 134:1 137:1 # 5205
0.0038324580938920841700900954407416 5:1 35:1 60:1 61:1 64:1 89:1 93:1 95:1 97:1 100:1 103:1 115:1 131:1 135:1 # 12271
0.0038324580938920841700900954407416 11:1 29:1 32:1 55:1 61:1 64:1 95:1 97:1 103:1 119:1 144:1 # 17442
0.0038324580938920841700900954407416 14:1 30:1 60:1 61:1 64:1 96:1 97:1 103:1 114:1 118:1 137:1 # 8823
-0.0038324580938920841700900954407416 5:1 29:1 32:1 55:1 61:1 64:1 97:1 103:1 118:1 124:1 134:1 135:1 137:1 # 9851
0.0038324580938920841700900954407416 11:1 26:1 53:1 64:1 89:1 93:1 95:1 100:1 110:1 114:1 116:1 132:1 133:1 137:1 139:1 # 9298
-0.0038324580938920841700900954407416 18:1 24:1 43:1 81:1 89:1 93:1 95:1 97:1 100:1 103:1 114:1 135:1 137:1 # 26313
-0.0038324580938920841700900954407416 5:1 29:1 32:1 47:1 64:1 89:1 93:1 95:1 97:1 100:1 103:1 119:1 139:1 145:1 # 24797
-0.0016355573405339249998258210894164 8:1 11:1 39:1 52:1 81:1 89:1 93:1 95:1 97:1 100:1 103:1 123:1 143:1 # 18044
-0.00073926081626185199437151229773235 5:1 6:1 11:1 17:1 22:1 60:1 61:1 64:1 89:1 93:1 95:1 97:1 100:1 103:1 115:1 144:1 145:1 # 29440
0.0038324580938920841700900954407416 9:1 13:1 19:1 28:1 30:1 32:1 34:1 47:1 55:1 61:1 68:1 76:1 82:1 105:1 111:1 118:1 124:1 131:1 # 2270
0.0038324580938920841700900954407416 8:1 11:1 13:1 30:1 50:1 53:1 64:1 102:1 103:1 122:1 131:1 135:1 137:1 139:1 142:1 145:1 # 16365
-0.00023142420077153170922951153087865 5:1 28:1 29:1 32:1 34:1 47:1 51:1 53:1 55:1 58:1 61:1 68:1 72:1 74:1 76:1 79:1 82:1 101:1 110:1 143:1 # 30658
-0.001794461755114534502048018183018 5:1 29:1 32:1 55:1 61:1 64:1 97:1 103:1 118:1 124:1 127:1 # 16899
-0.00088013734697340087736322500333586 5:1 9:1 26:1 27:1 30:1 32:1 47:1 51:1 71:1 74:1 100:1 103:1 110:1 114:1 116:1 121:1 131:1 # 6129
0.0038324580938920841700900954407416 1:1 39:1 43:1 81:1 89:1 93:1 97:1 103:1 123:1 137:1 145:1 # 8491
0.0038324580938920841700900954407416 17:1 26:1 30:1 32:1 37:1 48:1 64:1 89:1 103:1 114:1 137:1 # 15411
-0.0038324580938920841700900954407416 8:1 11:1 34:1 40:1 56:1 65:1 102:1 103:1 108:1 131:1 135:1 137:1 142:1 # 27251
-0.0038324580938920841700900954407416 9:1 11:1 35:1 58:1 64:1 102:1 103:1 119:1 144:1 145:1 # 11409
0.0014811428929245066491576787726103 5:1 9:1 26:1 29:1 30:1 32:1 34:1 38:1 47:1 51:1 53:1 55:1 58:1 61:1 64:1 89:1 97:1 103:1 113:1 116:1 144:1 # 19661
0.0013317050199974154837956330510451 5:1 19:1 28:1 29:1 32:1 34:1 47:1 51:1 53:1 55:1 58:1 61:1 68:1 82:1 105:1 126:1 135:1 139:1 145:1 # 827
0.0024409464232713843495625738455601 9:1 29:1 32:1 47:1 51:1 53:1 55:1 58:1 61:1 64:1 95:1 97:1 103:1 110:1 131:1 135:1 137:1 139:1 142:1 145:1 # 18566
-0.0038324580938920841700900954407416 5:1 6:1 11:1 13:1 19:1 30:1 47:1 55:1 61:1 64:1 89:1 93:1 95:1 114:1 135:1 137:1 # 13139
-0.0020035477416700010755423733144198 8:1 11:1 13:1 34:1 40:1 53:1 55:1 61:1 68:1 76:1 82:1 89:1 93:1 97:1 103:1 112:1 114:1 116:1 118:1 131:1 135:1 139:1 145:1 # 19079
-0.0038324580938920841700900954407416 8:1 11:1 27:1 47:1 51:1 53:1 58:1 64:1 89:1 93:1 95:1 97:1 100:1 103:1 106:1 131:1 135:1 137:1 139:1 142:1 145:1 # 13036
0.0038324580938920841700900954407416 10:1 39:1 40:1 59:1 64:1 102:1 123:1 124:1 131:1 135:1 137:1 142:1 # 18390
0.0038324580938920841700900954407416 9:1 26:1 30:1 32:1 34:1 37:1 40:1 47:1 64:1 102:1 103:1 119:1 144:1 145:1 # 20438
0.0023424252947028901053472260684885 5:1 17:1 22:1 59:1 64:1 105:1 110:1 114:1 116:1 118:1 121:1 124:1 131:1 143:1 # 3747
-0.0038324580938920841700900954407416 9:1 26:1 30:1 32:1 37:1 58:1 64:1 91:1 92:1 95:1 97:1 123:1 131:1 # 19137
-0.0038324580938920841700900954407416 18:1 26:1 30:1 50:1 55:1 64:1 102:1 110:1 114:1 143:1 # 3436
-0.0038324580938920841700900954407416 13:1 19:1 28:1 30:1 34:1 38:1 47:1 59:1 64:1 102:1 110:1 122:1 143:1 # 20598
0.0038324580938920841700900954407416 8:1 9:1 11:1 39:1 47:1 51:1 53:1 58:1 64:1 89:1 93:1 95:1 100:1 114:1 135:1 137:1 # 30706
-4.9070619844695986117022457051462e-06 8:1 11:1 34:1 40:1 43:1 68:1 76:1 82:1 93:1 116:1 131:1 135:1 137:1 142:1 # 20747
-0.0008981251625258487338021584633907 5:1 6:1 9:1 11:1 13:1 17:1 26:1 47:1 51:1 77:1 90:1 96:1 114:1 135:1 137:1 # 17613
-0.0038324580938920841700900954407416 8:1 11:1 13:1 39:1 47:1 59:1 64:1 92:1 95:1 113:1 116:1 131:1 132:1 137:1 # 128
0.0038324580938920841700900954407416 8:1 11:1 26:1 34:1 40:1 55:1 61:1 64:1 102:1 122:1 131:1 # 26097
0.0038324580938920841700900954407416 13:1 19:1 34:1 40:1 53:1 55:1 61:1 64:1 102:1 103:1 122:1 144:1 145:1 # 19016
0.0038324580938920841700900954407416 6:1 30:1 47:1 64:1 95:1 97:1 103:1 122:1 137:1 # 28595
-0.0038324580938920841700900954407416 9:1 13:1 19:1 34:1 40:1 55:1 61:1 64:1 97:1 103:1 110:1 118:1 124:1 140:1 # 13746
-0.0038324580938920841700900954407416 17:1 32:1 34:1 40:1 55:1 61:1 64:1 97:1 103:1 110:1 114:1 116:1 118:1 121:1 124:1 140:1 # 13664
-0.0038324580938920841700900954407416 9:1 29:1 32:1 55:1 61:1 64:1 97:1 103:1 110:1 118:1 122:1 124:1 127:1 # 9889
0.0022116236460803608866731995163946 8:1 11:1 13:1 27:1 47:1 64:1 95:1 97:1 103:1 113:1 116:1 131:1 # 2632
0.00078888743977974533274494239876162 18:1 38:1 47:1 53:1 55:1 59:1 61:1 64:1 89:1 103:1 114:1 134:1 137:1 # 30389
0.0038324580938920841700900954407416 5:1 35:1 53:1 64:1 89:1 93:1 95:1 97:1 100:1 103:1 110:1 116:1 143:1 # 11033
-0.0038324580938920841700900954407416 17:1 39:1 40:1 58:1 64:1 89:1 93:1 95:1 100:1 114:1 116:1 134:1 137:1 # 6860
-0.0023452945745606025920726445122 5:1 35:1 58:1 64:1 89:1 93:1 95:1 97:1 100:1 103:1 110:1 111:1 114:1 116:1 117:1 118:1 122:1 124:1 144:1 145:1 # 11442
-0.0038324580938920841700900954407416 5:1 22:1 47:1 48:1 53:1 59:1 64:1 89:1 93:1 95:1 97:1 100:1 103:1 122:1 144:1 # 26836
0.0038324580938920841700900954407416 13:1 19:1 34:1 40:1 47:1 55:1 61:1 64:1 97:1 103:1 110:1 114:1 116:1 118:1 121:1 124:1 131:1 # 18953
0.0038324580938920841700900954407416 9:1 13:1 30:1 50:1 53:1 64:1 97:1 103:1 110:1 118:1 124:1 127:1 # 5015
-0.0016775448943168987450680340600684 7:1 8:1 13:1 19:1 26:1 30:1 32:1 34:1 37:1 40:1 47:1 51:1 53:1 55:1 58:1 61:1 84:1 105:1 123:1 124:1 147:1 # 795
-2.5656509749969204337537165283578e-05 14:1 34:1 40:1 59:1 70:1 76:1 102:1 110:1 114:1 116:1 121:1 131:1 139:1 145:1 # 11775
-0.0012852363429231897749838164912717 9:1 29:1 32:1 47:1 51:1 53:1 55:1 58:1 61:1 68:1 72:1 102:1 103:1 110:1 114:1 116:1 121:1 131:1 135:1 137:1 # 29286
-0.0028256148258222115593474299544141 1:1 39:1 59:1 81:1 101:1 123:1 131:1 135:1 137:1 139:1 142:1 145:1 # 18085
0.0038324580938920841700900954407416 18:1 38:1 47:1 53:1 55:1 59:1 61:1 64:1 102:1 103:1 110:1 137:1 # 10514
0.0038324580938920841700900954407416 1:1 39:1 47:1 51:1 55:1 61:1 81:1 95:1 103:1 119:1 131:1 134:1 135:1 137:1 139:1 143:1 # 8493
-0.0038324580938920841700900954407416 13:1 19:1 26:1 34:1 40:1 55:1 61:1 64:1 89:1 95:1 97:1 103:1 118:1 124:1 140:1 # 28890
-0.00041861078265243551431440405252715 1:1 39:1 59:1 77:1 89:1 93:1 95:1 97:1 100:1 103:1 122:1 131:1 # 13268
-0.0026491490226153518137974796076151 10:1 39:1 59:1 81:1 89:1 97:1 102:1 103:1 119:1 131:1 # 12012
0.0038324580938920841700900954407416 2:1 26:1 30:1 32:1 34:1 37:1 40:1 47:1 66:1 105:1 126:1 135:1 139:1 145:1 # 2299
0.0038324580938920841700900954407416 9:1 11:1 29:1 32:1 34:1 51:1 73:1 105:1 126:1 147:1 # 489
-0.0038324580938920841700900954407416 5:1 32:1 47:1 53:1 64:1 101:1 123:1 143:1 # 5167
-0.0038324580938920841700900954407416 5:1 9:1 11:1 16:1 38:1 58:1 64:1 102:1 110:1 114:1 116:1 121:1 143:1 # 22126
-1.0580239452672395407753502816206e-05 13:1 19:1 28:1 30:1 34:1 38:1 47:1 59:1 64:1 102:1 122:1 135:1 # 16864
0.0038324580938920841700900954407416 1:1 39:1 59:1 64:1 89:1 93:1 95:1 97:1 100:1 103:1 122:1 144:1 # 28070
-0.0038324580938920841700900954407416 18:1 19:1 26:1 34:1 40:1 47:1 55:1 61:1 84:1 105:1 116:1 124:1 131:1 135:1 139:1 145:1 # 707
-0.0038324580938920841700900954407416 13:1 19:1 29:1 32:1 34:1 47:1 55:1 61:1 68:1 76:1 82:1 102:1 126:1 131:1 138:1 139:1 145:1 # 556
-0.0038324580938920841700900954407416 8:1 11:1 13:1 30:1 52:1 84:1 105:1 126:1 134:1 139:1 145:1 # 490
0.0038324580938920841700900954407416 17:1 39:1 59:1 64:1 101:1 110:1 118:1 122:1 124:1 143:1 # 8102
0.0038324580938920841700900954407416 5:1 29:1 32:1 34:1 47:1 64:1 89:1 97:1 103:1 118:1 123:1 124:1 140:1 # 2053
-0.0022752039532924778902911455702451 16:1 22:1 60:1 64:1 102:1 110:1 114:1 118:1 124:1 144:1 # 8322
-0.0038324580938920841700900954407416 17:1 35:1 58:1 64:1 89:1 93:1 95:1 97:1 100:1 103:1 123:1 124:1 143:1 # 11476
-0.0038324580938920841700900954407416 5:1 38:1 58:1 64:1 89:1 93:1 95:1 97:1 100:1 103:1 123:1 124:1 143:1 # 11547
-0.0038324580938920841700900954407416 11:1 38:1 58:1 64:1 89:1 93:1 95:1 97:1 100:1 103:1 110:1 114:1 116:1 118:1 121:1 124:1 143:1 # 11562
0.0038324580938920841700900954407416 5:1 13:1 19:1 26:1 34:1 40:1 47:1 55:1 61:1 68:1 82:1 105:1 126:1 131:1 145:1 # 805
0.0038324580938920841700900954407416 5:1 13:1 19:1 26:1 29:1 30:1 32:1 34:1 38:1 47:1 55:1 61:1 68:1 76:1 82:1 105:1 126:1 131:1 139:1 145:1 # 596
-0.0038324580938920841700900954407416 13:1 19:1 28:1 30:1 34:1 38:1 47:1 59:1 64:1 101:1 110:1 114:1 116:1 118:1 121:1 124:1 127:1 # 3859
-0.0038324580938920841700900954407416 14:1 26:1 59:1 64:1 102:1 122:1 127:1 # 3616
-0.0038324580938920841700900954407416 9:1 29:1 32:1 47:1 55:1 61:1 64:1 97:1 103:1 122:1 131:1 135:1 137:1 139:1 142:1 145:1 # 16478
0.0038324580938920841700900954407416 16:1 19:1 22:1 59:1 64:1 89:1 97:1 103:1 114:1 131:1 143:1 # 20698
0.0038324580938920841700900954407416 18:1 29:1 32:1 60:1 64:1 89:1 97:1 103:1 119:1 131:1 # 4259
0.0038324580938920841700900954407416 17:1 26:1 34:1 40:1 59:1 64:1 89:1 93:1 95:1 100:1 114:1 137:1 # 4086
0.0036520700795058280187233012981096 18:1 28:1 29:1 32:1 34:1 47:1 55:1 61:1 68:1 76:1 82:1 105:1 107:1 131:1 135:1 137:1 139:1 142:1 145:1 # 1050
0.0038324580938920841700900954407416 17:1 39:1 59:1 64:1 101:1 110:1 118:1 122:1 124:1 143:1 # 8259
-0.0038324580938920841700900954407416 5:1 9:1 26:1 30:1 47:1 53:1 55:1 59:1 61:1 64:1 89:1 110:1 131:1 134:1 135:1 137:1 139:1 143:1 # 6120
-0.0038324580938920841700900954407416 17:1 26:1 30:1 32:1 34:1 37:1 40:1 47:1 48:1 53:1 55:1 59:1 61:1 64:1 97:1 103:1 123:1 143:1 # 13359
-0.00019065580389023128863625056172992 6:1 11:1 26:1 30:1 32:1 56:1 69:1 89:1 97:1 103:1 114:1 135:1 137:1 # 1885
0.0038324580938920841700900954407416 11:1 26:1 32:1 47:1 64:1 102:1 122:1 142:1 # 6830
-0.0034306056914053442014056471975891 10:1 39:1 40:1 59:1 68:1 76:1 82:1 101:1 110:1 118:1 122:1 124:1 131:1 139:1 145:1 # 28123
-0.0038324580938920841700900954407416 18:1 35:1 60:1 64:1 101:1 126:1 128:1 # 975
-0.0038324580938920841700900954407416 16:1 22:1 60:1 64:1 102:1 110:1 114:1 118:1 124:1 144:1 # 6836
0.0038324580938920841700900954407416 9:1 29:1 32:1 47:1 51:1 53:1 55:1 58:1 61:1 64:1 89:1 93:1 95:1 97:1 100:1 103:1 123:1 124:1 143:1 # 18670
-0.0005405837200956698038872838552038 9:1 11:1 29:1 32:1 47:1 51:1 53:1 55:1 58:1 61:1 76:1 82:1 89:1 93:1 95:1 97:1 100:1 103:1 114:1 116:1 131:1 135:1 137:1 142:1 # 22296
0.0023751022591873608390267147427721 5:1 29:1 32:1 34:1 47:1 64:1 105:1 114:1 118:1 124:1 132:1 # 3102
-0.0023045731374988914774704085175472 18:1 26:1 30:1 32:1 34:1 37:1 40:1 47:1 51:1 72:1 89:1 93:1 95:1 97:1 100:1 103:1 113:1 116:1 132:1 # 11497
0.0038324580938920841700900954407416 18:1 26:1 59:1 64:1 102:1 110:1 134:1 137:1 # 12355
0.0038324580938920841700900954407416 8:1 11:1 13:1 32:1 34:1 40:1 55:1 61:1 64:1 102:1 123:1 139:1 145:1 # 3246
0.0018187025152612177562178041867469 6:1 26:1 34:1 40:1 60:1 61:1 64:1 90:1 103:1 123:1 140:1 # 16530
-0.0038324580938920841700900954407416 17:1 26:1 32:1 50:1 55:1 64:1 102:1 122:1 143:1 # 3604
-0.0038324580938920841700900954407416 11:1 19:1 38:1 47:1 51:1 53:1 55:1 58:1 61:1 64:1 101:1 122:1 127:1 # 5081
-0.0034067370005498912553798529501137 5:1 9:1 11:1 13:1 16:1 19:1 22:1 47:1 51:1 53:1 55:1 58:1 61:1 64:1 102:1 122:1 144:1 # 3725
0.0038324580938920841700900954407416 5:1 8:1 11:1 38:1 59:1 64:1 89:1 93:1 95:1 97:1 100:1 103:1 110:1 118:1 124:1 134:1 137:1 139:1 # 6397
0.0038324580938920841700900954407416 11:1 26:1 32:1 47:1 64:1 102:1 122:1 142:1 # 7885
-0.0020223810759116746943453435392257 8:1 19:1 26:1 33:1 34:1 38:1 39:1 40:1 51:1 53:1 80:1 90:1 92:1 95:1 96:1 97:1 103:1 110:1 114:1 131:1 135:1 137:1 # 140
-0.0003852165876792379211809858041704 5:1 8:1 11:1 26:1 30:1 32:1 34:1 37:1 40:1 60:1 68:1 82:1 89:1 103:1 112:1 113:1 116:1 118:1 131:1 135:1 137:1 139:1 142:1 145:1 # 588
0.0038324580938920841700900954407416 11:1 26:1 32:1 47:1 51:1 53:1 64:1 102:1 122:1 142:1 # 5530
0.0038324580938920841700900954407416 5:1 13:1 19:1 38:1 47:1 55:1 57:1 61:1 64:1 102:1 103:1 110:1 143:1 # 15697
-0.0038324580938920841700900954407416 18:1 19:1 29:1 32:1 34:1 47:1 53:1 55:1 59:1 61:1 64:1 89:1 93:1 95:1 100:1 110:1 135:1 # 10939
-0.0038324580938920841700900954407416 5:1 13:1 19:1 38:1 47:1 55:1 61:1 64:1 97:1 103:1 119:1 142:1 145:1 # 12083
-0.0038324580938920841700900954407416 13:1 19:1 38:1 47:1 55:1 61:1 64:1 97:1 103:1 119:1 139:1 145:1 # 21472
0.0031425575088397019601904602836839 14:1 26:1 34:1 60:1 64:1 95:1 97:1 103:1 119:1 131:1 135:1 # 5944
0.002951652007213831450244123644211 9:1 32:1 56:1 64:1 91:1 92:1 97:1 103:1 110:1 116:1 131:1 135:1 137:1 142:1 # 6685
-0.0032845915274348127382841866506169 9:1 11:1 29:1 32:1 51:1 69:1 89:1 95:1 97:1 103:1 110:1 114:1 131:1 # 20836
-0.0038324580938920841700900954407416 9:1 29:1 32:1 58:1 61:1 64:1 100:1 103:1 106:1 133:1 135:1 137:1 139:1 # 25810
-0.0021368291499624185968142509040035 9:1 11:1 29:1 32:1 51:1 74:1 89:1 93:1 95:1 97:1 100:1 103:1 122:1 131:1 135:1 137:1 142:1 # 26771
0.0038324580938920841700900954407416 18:1 38:1 47:1 53:1 55:1 59:1 61:1 64:1 89:1 103:1 114:1 135:1 # 30857
0.0038324580938920841700900954407416 13:1 19:1 28:1 34:1 47:1 53:1 55:1 61:1 64:1 92:1 95:1 97:1 103:1 110:1 140:1 # 5242
0.00029036611549347802639295390569885 18:1 38:1 47:1 53:1 55:1 59:1 61:1 64:1 95:1 103:1 119:1 132:1 # 17578
-0.0016308506293363964588516434872645 14:1 26:1 47:1 48:1 53:1 59:1 64:1 102:1 103:1 119:1 131:1 137:1 # 22762
0.0038324580938920841700900954407416 5:1 7:1 9:1 11:1 29:1 32:1 55:1 61:1 64:1 95:1 103:1 119:1 144:1 # 17540
0.0038324580938920841700900954407416 9:1 11:1 29:1 32:1 34:1 53:1 64:1 89:1 93:1 95:1 100:1 122:1 135:1 137:1 # 18243
-0.0038324580938920841700900954407416 1:1 39:1 59:1 81:1 93:1 123:1 124:1 131:1 # 26547
-0.0026912788295396579581197915587154 1:1 39:1 40:1 59:1 81:1 89:1 97:1 101:1 103:1 110:1 143:1 # 18770
-0.0038324580938920841700900954407416 5:1 13:1 19:1 28:1 30:1 32:1 34:1 58:1 61:1 64:1 97:1 103:1 118:1 124:1 143:1 # 10670
-0.0038324580938920841700900954407416 14:1 32:1 47:1 55:1 61:1 64:1 89:1 93:1 95:1 100:1 123:1 131:1 135:1 137:1 139:1 142:1 145:1 # 11492
-0.00048396393229332052053973112215601 7:1 9:1 11:1 13:1 33:1 51:1 53:1 68:1 91:1 93:1 95:1 97:1 114:1 135:1 137:1 # 1894
-0.00038223383864965666248045272901379 5:1 9:1 11:1 13:1 16:1 19:1 26:1 45:1 84:1 105:1 114:1 118:1 124:1 131:1 135:1 137:1 139:1 142:1 145:1 # 2300
0.0038324580938920841700900954407416 10:1 39:1 40:1 59:1 64:1 105:1 # 31207
0.0038324580938920841700900954407416 10:1 39:1 40:1 59:1 64:1 97:1 103:1 122:1 131:1 # 28486
-0.0037484006664285597285046769400196 8:1 11:1 13:1 32:1 47:1 73:1 102:1 103:1 122:1 144:1 # 22663
-0.0037715586690946919200262410498681 10:1 39:1 40:1 59:1 66:1 98:1 123:1 124:1 128:1 # 20213
-0.0038324580938920841700900954407416 13:1 19:1 26:1 30:1 32:1 34:1 37:1 40:1 55:1 61:1 64:1 97:1 103:1 119:1 131:1 135:1 137:1 139:1 142:1 145:1 # 12623
-0.0038324580938920841700900954407416 9:1 31:1 60:1 64:1 90:1 110:1 114:1 116:1 118:1 121:1 124:1 134:1 135:1 137:1 # 4900
-0.0038324580938920841700900954407416 5:1 9:1 23:1 45:1 64:1 89:1 97:1 101:1 110:1 118:1 124:1 133:1 135:1 137:1 139:1 # 5310
0.0038324580938920841700900954407416 13:1 19:1 35:1 55:1 61:1 64:1 105:1 111:1 118:1 124:1 131:1 # 4380
0.0016654376042943906492677097475053 9:1 29:1 32:1 47:1 51:1 53:1 58:1 64:1 89:1 93:1 95:1 97:1 100:1 103:1 123:1 124:1 140:1 # 18695
0.0038324580938920841700900954407416 5:1 9:1 26:1 30:1 47:1 64:1 101:1 110:1 118:1 122:1 124:1 143:1 # 7028
-0.0017076158341677077825288000312298 5:1 9:1 11:1 13:1 16:1 19:1 28:1 30:1 34:1 38:1 47:1 59:1 64:1 102:1 110:1 111:1 114:1 116:1 118:1 122:1 143:1 # 21754
0.0038324580938920841700900954407416 17:1 39:1 45:1 64:1 105:1 110:1 114:1 116:1 118:1 121:1 124:1 133:1 135:1 137:1 139:1 # 3772
0.0026937955123470308169131293141163 8:1 11:1 26:1 30:1 48:1 54:1 64:1 89:1 91:1 96:1 97:1 101:1 102:1 103:1 116:1 133:1 134:1 137:1 # 3140
0.0024867289954900247302138627247814 5:1 9:1 11:1 30:1 60:1 61:1 64:1 93:1 97:1 101:1 103:1 110:1 114:1 116:1 121:1 133:1 134:1 137:1 139:1 # 319
-0.0038324580938920841700900954407416 5:1 38:1 50:1 55:1 64:1 101:1 116:1 131:1 # 3909
-0.0038324580938920841700900954407416 9:1 27:1 47:1 51:1 53:1 55:1 58:1 61:1 76:1 82:1 95:1 97:1 103:1 118:1 124:1 131:1 # 30652
-0.0038324580938920841700900954407416 18:1 26:1 50:1 55:1 64:1 102:1 110:1 140:1 # 3557
0.0038324580938920841700900954407416 14:1 28:1 34:1 47:1 51:1 64:1 89:1 97:1 103:1 115:1 137:1 139:1 145:1 # 2350
0.0038324580938920841700900954407416 18:1 19:1 28:1 34:1 47:1 64:1 102:1 103:1 114:1 135:1 # 15359
0.0038324580938920841700900954407416 1:1 39:1 59:1 64:1 102:1 103:1 112:1 114:1 116:1 118:1 144:1 145:1 # 23770
-0.00060770871905622752748299397751452 7:1 13:1 39:1 47:1 80:1 102:1 103:1 115:1 131:1 135:1 137:1 139:1 142:1 145:1 # 23784
-0.0038324580938920841700900954407416 1:1 39:1 60:1 64:1 89:1 93:1 95:1 97:1 100:1 103:1 115:1 144:1 145:1 # 29206
0.0028266516338541448558063784446404 21:1 26:1 34:1 40:1 47:1 55:1 61:1 68:1 76:1 82:1 105:1 111:1 118:1 124:1 131:1 # 2362
-0.00048457455116103585052167446178828 7:1 9:1 11:1 13:1 39:1 43:1 68:1 75:1 76:1 82:1 93:1 110:1 135:1 # 10172
-0.0038324580938920841700900954407416 8:1 11:1 26:1 30:1 32:1 34:1 37:1 40:1 49:1 51:1 55:1 59:1 64:1 89:1 101:1 106:1 144:1 # 4717
-0.0038324580938920841700900954407416 5:1 29:1 32:1 34:1 58:1 61:1 64:1 89:1 97:1 103:1 112:1 114:1 116:1 118:1 142:1 145:1 # 10666
-0.0038324580938920841700900954407416 11:1 13:1 19:1 26:1 34:1 40:1 47:1 55:1 61:1 68:1 76:1 82:1 89:1 103:1 126:1 147:1 # 804
-0.0029406154794571941549219395994896 8:1 13:1 19:1 27:1 47:1 55:1 61:1 68:1 76:1 82:1 94:1 111:1 131:1 # 848
-0.0031823617562137468742222701223454 1:1 29:1 32:1 34:1 40:1 47:1 61:1 64:1 102:1 110:1 111:1 114:1 116:1 117:1 118:1 122:1 124:1 133:1 135:1 137:1 139:1 # 4746
0.0038324580938920841700900954407416 1:1 39:1 43:1 81:1 89:1 93:1 97:1 103:1 123:1 137:1 139:1 145:1 # 6837
0.0038324580938920841700900954407416 13:1 19:1 23:1 45:1 64:1 91:1 92:1 97:1 103:1 111:1 144:1 # 4971
0.0038324580938920841700900954407416 2:1 39:1 45:1 64:1 95:1 103:1 119:1 131:1 # 31048
-0.0038324580938920841700900954407416 14:1 26:1 47:1 48:1 53:1 59:1 64:1 97:1 103:1 122:1 144:1 # 28378
-0.0025039625920286650087587254631671 10:1 39:1 59:1 80:1 95:1 97:1 103:1 110:1 114:1 116:1 134:1 137:1 # 5137
0.00048158442492918202655280413004846 6:1 39:1 47:1 54:1 64:1 95:1 97:1 103:1 110:1 140:1 # 1792
0.001683124376093105695195717430579 7:1 9:1 11:1 13:1 26:1 34:1 38:1 40:1 47:1 55:1 61:1 64:1 102:1 103:1 110:1 114:1 116:1 118:1 121:1 124:1 143:1 # 18907
0.0038324580938920841700900954407416 13:1 19:1 26:1 40:1 55:1 61:1 68:1 76:1 80:1 82:1 105:1 126:1 131:1 139:1 145:1 # 752
-4.055125222068800495880264156412e-05 5:1 8:1 9:1 11:1 26:1 56:1 74:1 93:1 103:1 122:1 144:1 # 1555
0.0038324580938920841700900954407416 10:1 39:1 40:1 59:1 64:1 102:1 110:1 144:1 # 14062
0.0034855811481002080612356941458074 17:1 24:1 47:1 50:1 53:1 64:1 101:1 110:1 111:1 114:1 116:1 117:1 118:1 122:1 124:1 143:1 # 5560
0.0038324580938920841700900954407416 6:1 26:1 47:1 64:1 89:1 97:1 103:1 118:1 124:1 140:1 # 2108
-9.4266961294134498793202692201731e-05 9:1 19:1 28:1 29:1 32:1 34:1 47:1 51:1 53:1 58:1 68:1 85:1 126:1 143:1 # 2552
-0.0019423406555082701422515478739683 14:1 26:1 34:1 40:1 56:1 76:1 82:1 85:1 126:1 132:1 145:1 # 3254
-0.001160298122430594019993677079583 1:1 39:1 40:1 47:1 77:1 102:1 103:1 110:1 143:1 # 15483
0.0014596084559132646487483730979307 8:1 11:1 13:1 26:1 30:1 32:1 37:1 47:1 55:1 61:1 64:1 95:1 101:1 103:1 119:1 135:1 138:1 # 6101
0.00081810981696261314295021138676134 5:1 8:1 9:1 11:1 13:1 17:1 39:1 47:1 48:1 51:1 53:1 55:1 59:1 64:1 105:1 122:1 131:1 135:1 145:1 # 2660
-0.0014461659317712325604349254959402 21:1 42:1 51:1 55:1 61:1 68:1 72:1 74:1 76:1 79:1 82:1 89:1 103:1 112:1 113:1 116:1 118:1 131:1 137:1 139:1 145:1 # 2136
-0.00034933041837308294059322166802417 8:1 11:1 38:1 55:1 61:1 76:1 82:1 95:1 97:1 103:1 119:1 131:1 135:1 137:1 139:1 142:1 145:1 # 9944
-0.0024084628409789914094130125477022 5:1 9:1 11:1 13:1 16:1 19:1 22:1 47:1 51:1 53:1 55:1 58:1 61:1 64:1 100:1 103:1 106:1 134:1 137:1 139:1 145:1 # 3868
0.0038324580938920841700900954407416 18:1 26:1 59:1 66:1 105:1 126:1 132:1 145:1 # 1202
0.0038324580938920841700900954407416 1:1 34:1 40:1 55:1 61:1 64:1 90:1 103:1 123:1 124:1 143:1 # 16821
0.0038324580938920841700900954407416 14:1 34:1 40:1 59:1 64:1 97:1 103:1 114:1 135:1 # 13754
-0.0038324580938920841700900954407416 9:1 32:1 58:1 64:1 89:1 92:1 93:1 95:1 97:1 101:1 110:1 114:1 116:1 131:1 # 4485
-0.0038324580938920841700900954407416 5:1 29:1 32:1 34:1 47:1 55:1 57:1 61:1 64:1 89:1 122:1 131:1 135:1 # 19146
-0.0015064201246676811943303597729482 5:1 13:1 19:1 29:1 32:1 47:1 51:1 53:1 58:1 72:1 95:1 114:1 135:1 # 19517
-0.0016887363182711981682282420536012 21:1 42:1 51:1 55:1 61:1 68:1 72:1 74:1 76:1 79:1 82:1 94:1 123:1 131:1 135:1 137:1 139:1 142:1 145:1 # 831
0.0038324580938920841700900954407416 5:1 9:1 13:1 19:1 39:1 60:1 64:1 89:1 97:1 103:1 114:1 135:1 # 31038
-0.00052646047317679502564741200743015 21:1 42:1 47:1 51:1 53:1 55:1 58:1 61:1 68:1 72:1 74:1 76:1 79:1 82:1 92:1 103:1 110:1 114:1 116:1 118:1 121:1 124:1 131:1 135:1 137:1 139:1 142:1 145:1 # 1844
-0.0038324580938920841700900954407416 18:1 35:1 51:1 55:1 61:1 64:1 89:1 97:1 101:1 103:1 106:1 139:1 145:1 # 3733
-0.00092347689939173416284745599114103 8:1 11:1 13:1 26:1 49:1 51:1 53:1 55:1 68:1 97:1 103:1 113:1 116:1 118:1 122:1 131:1 132:1 139:1 143:1 # 2645
0.0038324580938920841700900954407416 5:1 9:1 30:1 51:1 64:1 101:1 110:1 116:1 118:1 122:1 124:1 143:1 # 8377
0.0034477147144093885783311392856376 5:1 9:1 27:1 32:1 47:1 51:1 53:1 58:1 64:1 89:1 93:1 95:1 97:1 100:1 103:1 110:1 114:1 134:1 137:1 # 4942
-0.0038324580938920841700900954407416 10:1 39:1 47:1 51:1 68:1 71:1 101:1 110:1 118:1 124:1 143:1 # 17970
-0.001685730840831270796464913530599 8:1 11:1 13:1 26:1 32:1 47:1 68:1 101:1 110:1 118:1 124:1 143:1 # 26294
-0.0029632000395139333932814640348852 9:1 11:1 26:1 30:1 32:1 37:1 47:1 51:1 80:1 89:1 93:1 95:1 97:1 100:1 103:1 122:1 135:1 # 10268
0.0038324580938920841700900954407416 18:1 19:1 38:1 47:1 64:1 95:1 97:1 101:1 102:1 103:1 116:1 131:1 135:1 137:1 139:1 142:1 145:1 # 6929
0.0038324580938920841700900954407416 5:1 9:1 29:1 32:1 34:1 47:1 51:1 55:1 61:1 66:1 105:1 126:1 134:1 139:1 145:1 # 842
0.00024934961656073839197239605525169 17:1 26:1 30:1 32:1 34:1 37:1 40:1 59:1 64:1 89:1 93:1 95:1 97:1 100:1 103:1 110:1 144:1 # 25819
0.0038324580938920841700900954407416 9:1 32:1 47:1 64:1 102:1 103:1 110:1 143:1 # 22031
0.0038324580938920841700900954407416 5:1 13:1 26:1 59:1 64:1 95:1 103:1 119:1 132:1 # 14021
0.0017816525032521126140072631471867 6:1 11:1 32:1 47:1 51:1 64:1 105:1 122:1 144:1 # 13929
-0.0038324580938920841700900954407416 9:1 29:1 32:1 55:1 61:1 64:1 97:1 103:1 118:1 124:1 143:1 # 15937
-0.00087824595331889142996173447386354 5:1 9:1 29:1 32:1 34:1 50:1 51:1 53:1 81:1 94:1 123:1 142:1 145:1 # 20692
0.0038324580938920841700900954407416 18:1 26:1 30:1 32:1 37:1 55:1 61:1 64:1 89:1 103:1 114:1 134:1 137:1 # 15312
0.0023680413661805984129604674137681 5:1 19:1 22:1 60:1 61:1 64:1 90:1 103:1 110:1 114:1 116:1 134:1 137:1 139:1 # 10932
0.0019943375445608015061882412055638 14:1 28:1 30:1 32:1 34:1 60:1 61:1 64:1 105:1 113:1 116:1 118:1 124:1 131:1 # 4707
0.0038324580938920841700900954407416 9:1 29:1 32:1 47:1 51:1 53:1 55:1 58:1 61:1 64:1 89:1 93:1 95:1 97:1 100:1 103:1 123:1 124:1 143:1 # 18887
-0.0010369212665211416379840159152081 5:1 26:1 30:1 43:1 81:1 82:1 89:1 97:1 103:1 110:1 114:1 116:1 121:1 135:1 137:1 # 10077
-0.0024011748417781544027993501089213 5:1 8:1 9:1 11:1 13:1 17:1 26:1 47:1 53:1 71:1 74:1 102:1 103:1 110:1 114:1 116:1 121:1 135:1 # 5655
0.0019860122719793341268534891952413 14:1 26:1 30:1 32:1 34:1 37:1 40:1 59:1 64:1 102:1 103:1 110:1 135:1 # 13594
-0.0013742918949929416611716037621704 5:1 9:1 11:1 16:1 28:1 34:1 47:1 55:1 61:1 64:1 89:1 93:1 95:1 100:1 122:1 144:1 # 14083
-0.0038324580938920841700900954407416 8:1 11:1 13:1 27:1 47:1 53:1 55:1 59:1 61:1 64:1 89:1 110:1 114:1 144:1 145:1 # 11353
0.0038324580938920841700900954407416 8:1 11:1 26:1 34:1 40:1 55:1 61:1 64:1 102:1 110:1 131:1 139:1 145:1 # 18799
0.0038324580938920841700900954407416 17:1 26:1 30:1 32:1 37:1 60:1 61:1 64:1 95:1 97:1 103:1 110:1 143:1 # 17327
0.0018396435437725501722827647910208 6:1 26:1 47:1 64:1 97:1 103:1 114:1 135:1 # 14498
-0.0038324580938920841700900954407416 18:1 26:1 59:1 81:1 95:1 103:1 119:1 139:1 145:1 # 29746
-0.0036314536000305063824511453418609 6:1 7:1 8:1 11:1 39:1 40:1 59:1 81:1 102:1 103:1 123:1 143:1 # 13684
0.0027667970558111275140855678245089 5:1 9:1 11:1 16:1 29:1 32:1 47:1 51:1 64:1 102:1 110:1 114:1 116:1 121:1 131:1 135:1 137:1 139:1 142:1 145:1 # 6908
0.0012368711071724942506672162423342 8:1 11:1 13:1 27:1 47:1 51:1 64:1 105:1 126:1 143:1 # 517
0.0038324580938920841700900954407416 17:1 26:1 59:1 64:1 101:1 110:1 118:1 122:1 124:1 143:1 # 7085
-8.7338245419785279785931941809451e-05 1:1 42:1 63:1 81:1 82:1 102:1 115:1 131:1 139:1 145:1 # 2393
-0.0023502743597409985615298566585807 21:1 38:1 51:1 55:1 61:1 68:1 72:1 74:1 76:1 79:1 82:1 102:1 115:1 132:1 145:1 # 522
-0.001827067934274554349138863784674 3:1 42:1 63:1 69:1 82:1 96:1 103:1 123:1 131:1 139:1 145:1 # 988
-0.00033460078516247128248284337104224 5:1 30:1 51:1 53:1 72:1 89:1 93:1 95:1 97:1 100:1 103:1 122:1 131:1 135:1 137:1 142:1 # 18250
-0.00052610376370866725713459910451775 7:1 9:1 11:1 13:1 32:1 47:1 51:1 68:1 72:1 92:1 111:1 137:1 # 3296
-0.0017904425990897742618918053736365 5:1 9:1 11:1 16:1 39:1 60:1 80:1 102:1 103:1 110:1 114:1 133:1 135:1 137:1 139:1 # 10739
0.0038324580938920841700900954407416 5:1 9:1 11:1 13:1 16:1 19:1 30:1 34:1 40:1 59:1 64:1 90:1 103:1 123:1 143:1 # 20131
0.0038324580938920841700900954407416 5:1 9:1 11:1 16:1 26:1 47:1 64:1 102:1 103:1 114:1 144:1 145:1 # 8989
-0.0037145979173846595949859406005089 21:1 29:1 34:1 40:1 47:1 55:1 61:1 73:1 90:1 103:1 110:1 116:1 137:1 # 495
-0.0038324580938920841700900954407416 13:1 19:1 22:1 47:1 48:1 53:1 59:1 64:1 97:1 103:1 123:1 131:1 134:1 # 18016
-0.0038324580938920841700900954407416 18:1 38:1 47:1 61:1 80:1 102:1 103:1 110:1 114:1 135:1 # 4830
0.0038324580938920841700900954407416 18:1 30:1 32:1 47:1 51:1 64:1 89:1 93:1 95:1 97:1 100:1 103:1 115:1 132:1 145:1 # 4171
-0.0038324580938920841700900954407416 1:1 39:1 60:1 64:1 89:1 93:1 95:1 97:1 100:1 103:1 115:1 144:1 145:1 # 30208
-0.0035878228265461414858705779806769 17:1 39:1 59:1 77:1 89:1 93:1 95:1 97:1 100:1 103:1 122:1 137:1 # 25569
-8.5716020326225163391761774356326e-05 17:1 26:1 30:1 32:1 34:1 37:1 40:1 47:1 48:1 53:1 55:1 59:1 61:1 64:1 102:1 103:1 123:1 140:1 # 13386
0.0038324580938920841700900954407416 14:1 39:1 47:1 64:1 89:1 93:1 95:1 97:1 100:1 103:1 110:1 114:1 116:1 121:1 143:1 # 20954
0.0038324580938920841700900954407416 1:1 39:1 59:1 64:1 89:1 93:1 95:1 97:1 100:1 103:1 118:1 123:1 124:1 139:1 145:1 # 18539
0.0016444570408120082801589623144878 14:1 26:1 60:1 64:1 89:1 93:1 95:1 97:1 100:1 103:1 110:1 131:1 135:1 137:1 # 26668
-0.0002549874162925031581376777989334 5:1 29:1 32:1 55:1 61:1 64:1 89:1 93:1 95:1 97:1 100:1 103:1 110:1 114:1 116:1 118:1 121:1 124:1 127:1 # 16872
-0.0038324580938920841700900954407416 5:1 13:1 19:1 35:1 55:1 61:1 64:1 97:1 103:1 119:1 131:1 135:1 137:1 139:1 142:1 145:1 # 13875
-0.0017025521583341918663984104753695 13:1 19:1 38:1 49:1 51:1 53:1 55:1 81:1 89:1 93:1 95:1 97:1 100:1 103:1 114:1 118:1 135:1 # 26287
0.0010527683463700389203399065962685 7:1 9:1 11:1 13:1 26:1 30:1 47:1 48:1 51:1 53:1 54:1 55:1 59:1 61:1 64:1 105:1 126:1 134:1 145:1 # 427
0.0038324580938920841700900954407416 6:1 11:1 26:1 53:1 64:1 105:1 126:1 143:1 # 549
0.0030923076965236038528284101545296 21:1 42:1 47:1 55:1 61:1 68:1 76:1 82:1 105:1 110:1 113:1 116:1 135:1 145:1 # 618
-0.00032236713771815409933924057028776 9:1 11:1 26:1 29:1 30:1 32:1 34:1 38:1 47:1 51:1 53:1 58:1 68:1 85:1 126:1 132:1 145:1 # 10227
-0.0031699685610923492365409437354629 11:1 29:1 30:1 32:1 47:1 51:1 53:1 58:1 73:1 101:1 122:1 142:1 # 8640
-0.00090547097065564376844326588411604 18:1 26:1 47:1 51:1 53:1 58:1 68:1 101:1 110:1 114:1 116:1 118:1 121:1 124:1 131:1 139:1 143:1 145:1 # 10563
0.0038324580938920841700900954407416 5:1 13:1 19:1 29:1 32:1 34:1 55:1 61:1 64:1 89:1 103:1 114:1 135:1 # 14168
-0.0038324580938920841700900954407416 13:1 19:1 35:1 55:1 61:1 64:1 89:1 97:1 103:1 110:1 118:1 124:1 140:1 # 12975
-0.0028103743484592870645333295698265 5:1 38:1 47:1 55:1 61:1 64:1 89:1 97:1 99:1 103:1 106:1 137:1 139:1 145:1 # 11836
-0.0038324580938920841700900954407416 18:1 26:1 30:1 32:1 37:1 47:1 70:1 76:1 89:1 103:1 123:1 124:1 137:1 # 21914
-0.0013895728440415418963871374558039 5:1 9:1 11:1 13:1 16:1 19:1 28:1 30:1 34:1 38:1 47:1 59:1 64:1 101:1 110:1 114:1 116:1 118:1 121:1 124:1 133:1 135:1 139:1 143:1 # 10375
0.0038324580938920841700900954407416 17:1 32:1 47:1 51:1 64:1 89:1 97:1 103:1 122:1 144:1 # 28662
-0.0038324580938920841700900954407416 17:1 23:1 47:1 51:1 53:1 55:1 58:1 61:1 64:1 89:1 97:1 103:1 106:1 144:1 # 3763
-0.0038324580938920841700900954407416 5:1 9:1 11:1 29:1 58:1 64:1 89:1 113:1 116:1 118:1 131:1 135:1 137:1 139:1 142:1 145:1 # 4552
-0.0021956438914895932447424176103823 5:1 12:1 13:1 17:1 18:1 19:1 30:1 32:1 56:1 80:1 90:1 92:1 95:1 96:1 97:1 103:1 110:1 131:1 135:1 # 64
-0.0038324580938920841700900954407416 18:1 34:1 40:1 59:1 71:1 74:1 97:1 103:1 123:1 131:1 # 29741
0.0028190216136220590942285113555954 5:1 12:1 26:1 30:1 32:1 37:1 59:1 64:1 102:1 103:1 112:1 114:1 116:1 118:1 144:1 # 21441
-0.0025504666682475045716427253239544 3:1 26:1 29:1 32:1 47:1 51:1 53:1 55:1 58:1 61:1 77:1 102:1 103:1 110:1 114:1 116:1 121:1 135:1 # 5607
0.00049282386312851449682026494514275 8:1 9:1 11:1 35:1 55:1 61:1 64:1 89:1 97:1 103:1 110:1 114:1 131:1 135:1 # 13331
0.0026724275412912472903170790772265 18:1 26:1 59:1 66:1 105:1 126:1 131:1 135:1 137:1 139:1 142:1 145:1 # 1840
-0.0038324580938920841700900954407416 18:1 38:1 50:1 55:1 64:1 102:1 122:1 140:1 # 3538
0.0038324580938920841700900954407416 5:1 26:1 53:1 64:1 97:1 103:1 114:1 135:1 137:1 # 14113
-5.6236692865211474964826088296377e-05 10:1 39:1 40:1 59:1 66:1 98:1 112:1 114:1 116:1 118:1 144:1 145:1 # 20349
-0.0038324580938920841700900954407416 14:1 26:1 47:1 48:1 53:1 59:1 64:1 102:1 103:1 119:1 131:1 # 28141
0.0021612587122470665497442343649936 5:1 11:1 26:1 30:1 47:1 50:1 51:1 53:1 55:1 59:1 64:1 101:1 110:1 116:1 118:1 122:1 124:1 143:1 # 8294
-0.0026750482395102664033570416535213 18:1 26:1 30:1 32:1 37:1 59:1 68:1 101:1 103:1 112:1 114:1 116:1 118:1 132:1 # 17672
-0.00066331710762288116634000090243717 5:1 6:1 8:1 9:1 11:1 12:1 17:1 26:1 30:1 32:1 37:1 47:1 51:1 53:1 72:1 89:1 97:1 103:1 113:1 116:1 131:1 135:1 # 8837
0.0038324580938920841700900954407416 18:1 38:1 60:1 61:1 64:1 95:1 103:1 119:1 138:1 # 9115
0.0023928992904096702508398575304227 9:1 13:1 19:1 28:1 29:1 34:1 40:1 47:1 55:1 61:1 68:1 72:1 76:1 82:1 105:1 111:1 118:1 124:1 131:1 # 2220
-0.0018640562213737856250145297209997 9:1 11:1 29:1 32:1 60:1 61:1 80:1 89:1 95:1 97:1 103:1 123:1 136:1 # 6865
-0.0038324580938920841700900954407416 5:1 38:1 45:1 84:1 105:1 111:1 118:1 124:1 131:1 135:1 # 1060
-0.0012522540671443035259491338706539 5:1 13:1 19:1 35:1 58:1 61:1 64:1 102:1 122:1 135:1 # 11959
0.001446741252880503949412860364987 9:1 26:1 30:1 32:1 34:1 37:1 40:1 59:1 64:1 90:1 103:1 116:1 131:1 135:1 137:1 139:1 # 11573
-0.0038324580938920841700900954407416 21:1 32:1 34:1 40:1 47:1 51:1 73:1 90:1 103:1 110:1 116:1 137:1 # 573
0.0038324580938920841700900954407416 5:1 13:1 19:1 35:1 55:1 61:1 64:1 105:1 111:1 124:1 131:1 135:1 137:1 142:1 # 3255
-4.3386963053714677632580198896051e-05 8:1 11:1 13:1 33:1 51:1 55:1 72:1 74:1 85:1 126:1 147:1 # 1178
-0.001903932371919733832626997482862 1:1 42:1 47:1 55:1 57:1 61:1 80:1 105:1 114:1 118:1 124:1 134:1 137:1 139:1 # 7199
-8.4865032562456835306223534853842e-05 8:1 11:1 13:1 27:1 60:1 61:1 68:1 91:1 92:1 95:1 110:1 114:1 138:1 # 9050
0.00046524228475479183740615152231612 14:1 34:1 40:1 59:1 64:1 89:1 93:1 95:1 97:1 100:1 103:1 110:1 114:1 116:1 121:1 144:1 # 13670
0.002700126305500110193702489880252 1:1 34:1 40:1 47:1 55:1 61:1 64:1 89:1 103:1 110:1 114:1 116:1 121:1 138:1 # 5018
-0.0023543166828275778612589164140445 11:1 30:1 32:1 47:1 55:1 59:1 61:1 64:1 89:1 93:1 95:1 100:1 110:1 114:1 131:1 135:1 137:1 139:1 142:1 145:1 # 10836
0.0036123807351177619068272051094937 11:1 13:1 19:1 35:1 53:1 61:1 64:1 92:1 95:1 97:1 103:1 123:1 140:1 # 5059
0.0026984923153384045117764156174189 5:1 28:1 30:1 32:1 34:1 47:1 64:1 105:1 110:1 118:1 124:1 136:1 # 2382
-0.0017239462645316718132637578975164 18:1 38:1 55:1 61:1 81:1 89:1 97:1 99:1 103:1 119:1 144:1 # 24423
-0.0020016960681556736703634591378886 5:1 9:1 11:1 29:1 32:1 34:1 47:1 61:1 81:1 82:1 89:1 93:1 97:1 103:1 113:1 132:1 # 6765
-0.0005730171937335293199516916828884 13:1 18:1 19:1 29:1 32:1 34:1 60:1 68:1 89:1 96:1 114:1 132:1 # 4279
-0.0005752777807317421832067338982597 8:1 11:1 13:1 39:1 40:1 47:1 51:1 53:1 55:1 58:1 61:1 68:1 91:1 97:1 110:1 114:1 116:1 121:1 131:1 135:1 137:1 142:1 # 12534
-0.00049526770535321656269145407236465 11:1 32:1 43:1 84:1 105:1 110:1 118:1 124:1 131:1 139:1 145:1 # 727
-0.0038324580938920841700900954407416 5:1 13:1 19:1 26:1 34:1 40:1 47:1 61:1 84:1 105:1 110:1 124:1 131:1 139:1 145:1 # 806
0.0034593780977736185607007701747762 6:1 11:1 29:1 32:1 34:1 60:1 61:1 64:1 89:1 97:1 103:1 113:1 116:1 118:1 132:1 # 9197
0.0038324580938920841700900954407416 8:1 11:1 30:1 55:1 61:1 64:1 93:1 103:1 113:1 116:1 132:1 # 9409
0.0038324580938920841700900954407416 8:1 11:1 34:1 40:1 55:1 61:1 64:1 89:1 93:1 95:1 97:1 100:1 103:1 122:1 144:1 145:1 # 21451
-0.0026955145185179564190636192222428 14:1 28:1 30:1 32:1 34:1 60:1 68:1 102:1 103:1 113:1 116:1 131:1 # 19787
0.0006146559410399640276806421113065 21:1 26:1 32:1 34:1 40:1 47:1 61:1 68:1 76:1 82:1 105:1 110:1 113:1 116:1 131:1 135:1 137:1 139:1 142:1 145:1 # 669
-0.0022157897383568965835043407253124 21:1 42:1 47:1 55:1 61:1 68:1 76:1 82:1 89:1 97:1 103:1 126:1 132:1 139:1 145:1 # 2361
-0.0019760993196992040002446522350965 1:1 42:1 47:1 55:1 61:1 73:1 95:1 97:1 103:1 110:1 113:1 116:1 134:1 137:1 139:1 # 2385
-0.0023211671138087465633692563216073 5:1 9:1 26:1 47:1 51:1 77:1 95:1 110:1 132:1 # 8590
-0.00037057215591320422434784553900045 6:1 11:1 26:1 32:1 47:1 71:1 72:1 102:1 103:1 119:1 132:1 138:1 # 28514
0.00012278898442133582028998328716796 5:1 9:1 38:1 60:1 64:1 89:1 97:1 103:1 110:1 114:1 131:1 135:1 # 15160
-0.0013780020015913500147641812532129 6:1 26:1 51:1 69:1 89:1 93:1 95:1 97:1 100:1 103:1 123:1 124:1 131:1 137:1 # 10238
0.0035369682392670650714072699827284 7:1 8:1 11:1 13:1 27:1 47:1 64:1 92:1 103:1 117:1 135:1 # 1903
0.0011747029848700324405896822099749 5:1 9:1 11:1 16:1 26:1 47:1 51:1 53:1 58:1 64:1 102:1 103:1 110:1 143:1 # 15670
-0.0038324580938920841700900954407416 1:1 39:1 43:1 84:1 90:1 103:1 110:1 131:1 135:1 137:1 # 2851
-0.00096006650553211528038161093334679 7:1 9:1 11:1 13:1 39:1 59:1 76:1 82:1 102:1 103:1 113:1 114:1 116:1 131:1 139:1 # 23227
-3.5457114867873428584038597577432e-05 10:1 39:1 40:1 59:1 76:1 82:1 102:1 122:1 139:1 145:1 # 22517
0.0017580947454356957854182397227305 17:1 35:1 53:1 64:1 89:1 93:1 95:1 97:1 100:1 103:1 110:1 114:1 131:1 # 27606
0.0038324580938920841700900954407416 9:1 32:1 56:1 64:1 89:1 93:1 95:1 97:1 100:1 103:1 114:1 135:1 # 7219
-0.0035609293995030001298007782395416 5:1 22:1 47:1 48:1 53:1 59:1 64:1 89:1 93:1 95:1 97:1 100:1 103:1 122:1 144:1 # 27378
0.0038324580938920841700900954407416 2:1 39:1 45:1 64:1 90:1 103:1 110:1 144:1 # 21338
0.0030856247982504062324360383229305 21:1 42:1 47:1 55:1 61:1 68:1 76:1 82:1 105:1 110:1 113:1 116:1 131:1 135:1 137:1 139:1 142:1 145:1 # 583
-0.0032213941848629390127256577613934 6:1 34:1 40:1 53:1 55:1 61:1 68:1 74:1 76:1 82:1 93:1 95:1 111:1 131:1 135:1 # 15241
0.0038324580938920841700900954407416 1:1 38:1 59:1 64:1 89:1 103:1 110:1 117:1 135:1 137:1 # 5084
0.0038324580938920841700900954407416 5:1 9:1 29:1 32:1 47:1 64:1 93:1 97:1 103:1 110:1 135:1 139:1 # 1437
0.0030197658036756978156001096635919 5:1 19:1 26:1 59:1 64:1 89:1 103:1 110:1 131:1 # 14844
-0.0038324580938920841700900954407416 1:1 39:1 60:1 64:1 89:1 93:1 95:1 97:1 100:1 103:1 115:1 144:1 145:1 # 29178
-0.00033873199886471223570352795384508 21:1 23:1 47:1 51:1 53:1 55:1 58:1 61:1 81:1 82:1 97:1 103:1 110:1 118:1 124:1 131:1 145:1 # 2405
-0.001790356013253494331036175246652 18:1 19:1 39:1 47:1 51:1 53:1 55:1 58:1 61:1 73:1 102:1 103:1 119:1 144:1 145:1 # 23793
-0.0038324580938920841700900954407416 5:1 11:1 26:1 59:1 81:1 89:1 103:1 110:1 143:1 # 14840
-6.3233576833564213528528219487868e-05 18:1 38:1 47:1 51:1 53:1 55:1 58:1 61:1 73:1 102:1 103:1 122:1 131:1 135:1 137:1 142:1 # 24918
0.0038324580938920841700900954407416 17:1 39:1 59:1 64:1 101:1 110:1 116:1 118:1 122:1 124:1 143:1 # 5643
0.00018751440469621074094708212953719 5:1 26:1 29:1 30:1 32:1 34:1 38:1 55:1 61:1 64:1 92:1 95:1 97:1 103:1 119:1 131:1 135:1 # 24084
-0.00042540885587578295551347551395338 8:1 11:1 39:1 59:1 68:1 72:1 74:1 79:1 97:1 103:1 114:1 134:1 137:1 # 27316
-0.0011957062839518155586415737445805 8:1 11:1 26:1 30:1 32:1 37:1 47:1 51:1 68:1 72:1 74:1 79:1 102:1 103:1 122:1 144:1 145:1 # 28952
0.0038324580938920841700900954407416 18:1 38:1 47:1 53:1 55:1 59:1 61:1 64:1 97:1 103:1 114:1 135:1 137:1 # 18031
-0.00066464084214684420945373766187458 8:1 11:1 26:1 34:1 40:1 47:1 51:1 53:1 55:1 58:1 61:1 68:1 76:1 82:1 98:1 118:1 124:1 140:1 # 24900
-0.00091483759848549894844182972519775 9:1 11:1 29:1 32:1 47:1 51:1 53:1 69:1 89:1 93:1 95:1 97:1 100:1 103:1 110:1 143:1 # 19556
-0.0023419228759302391194851988842629 17:1 26:1 33:1 59:1 68:1 72:1 74:1 76:1 79:1 82:1 101:1 116:1 118:1 124:1 131:1 135:1 # 5457
0.0034483656949940528699261044209834 9:1 11:1 29:1 32:1 55:1 61:1 64:1 90:1 103:1 110:1 114:1 116:1 121:1 135:1 # 26487
0.0028156419358607268250971333856114 12:1 26:1 30:1 47:1 64:1 89:1 93:1 95:1 97:1 100:1 103:1 119:1 135:1 # 10102
-0.0037417221323897730325680477392325 9:1 26:1 30:1 47:1 72:1 89:1 97:1 103:1 114:1 131:1 137:1 # 30008
0.0033672262362367242662097854832837 12:1 30:1 32:1 47:1 64:1 92:1 97:1 103:1 123:1 131:1 # 27934
0.0038324580938920841700900954407416 17:1 26:1 33:1 47:1 64:1 90:1 103:1 116:1 131:1 # 13901
-0.0022798685973142948126002327313699 17:1 26:1 47:1 48:1 53:1 59:1 64:1 102:1 103:1 119:1 131:1 135:1 137:1 139:1 142:1 145:1 # 13458
-0.0038324580938920841700900954407416 18:1 38:1 50:1 55:1 64:1 102:1 122:1 140:1 # 3498
-8.2068746258232767886754699393492e-05 21:1 29:1 40:1 47:1 51:1 53:1 55:1 58:1 61:1 72:1 95:1 111:1 116:1 135:1 # 4868
-0.00043170502346761294512611506490884 7:1 8:1 13:1 19:1 26:1 47:1 51:1 77:1 102:1 103:1 110:1 114:1 116:1 121:1 137:1 # 19088
-0.0038324580938920841700900954407416 6:1 26:1 51:1 73:1 97:1 103:1 110:1 114:1 134:1 139:1 # 3668
-0.000920558734827382025775466267703 8:1 9:1 11:1 39:1 47:1 51:1 53:1 58:1 74:1 85:1 110:1 117:1 118:1 124:1 135:1 # 24242
-0.001772324145549077165778806275398 5:1 12:1 13:1 19:1 26:1 30:1 32:1 51:1 53:1 70:1 71:1 102:1 103:1 114:1 135:1 # 26822
0.0019760479397702914068635227096138 5:1 28:1 30:1 32:1 34:1 47:1 51:1 53:1 64:1 101:1 110:1 118:1 122:1 124:1 143:1 # 7137
0.00087395182519395026195241360511545 5:1 9:1 11:1 16:1 29:1 32:1 34:1 47:1 51:1 53:1 55:1 58:1 61:1 64:1 97:1 103:1 114:1 116:1 134:1 137:1 # 30564
-0.0018898670179987252758235793947961 8:1 11:1 34:1 40:1 56:1 65:1 102:1 103:1 108:1 131:1 135:1 137:1 142:1 # 26939
-7.4925043108098381356221850957411e-05 8:1 11:1 26:1 30:1 32:1 34:1 37:1 40:1 43:1 76:1 82:1 102:1 103:1 122:1 144:1 # 25526
0.0038324580938920841700900954407416 9:1 32:1 51:1 64:1 102:1 103:1 114:1 137:1 # 5426
-0.0029131604600714446247355926544742 5:1 29:1 32:1 55:1 61:1 64:1 97:1 103:1 110:1 114:1 116:1 118:1 121:1 124:1 140:1 # 10810
-0.00077254694099883032890052625418775 7:1 9:1 11:1 13:1 26:1 47:1 48:1 53:1 59:1 64:1 102:1 123:1 140:1 # 23745
-0.0010162868373933375398115996901538 1:1 39:1 59:1 72:1 93:1 113:1 116:1 139:1 145:1 # 16703
-0.0014435173379419236408538473881435 9:1 29:1 32:1 47:1 51:1 53:1 58:1 81:1 102:1 122:1 144:1 145:1 # 10737
-0.0012124730653160179384003614089238 9:1 11:1 30:1 47:1 51:1 53:1 55:1 58:1 61:1 77:1 95:1 97:1 103:1 110:1 134:1 137:1 139:1 # 13095
-0.0010975015943487976839004760520879 1:1 39:1 59:1 77:1 89:1 97:1 103:1 122:1 144:1 # 3501
0.0034757021750172383336985326707236 5:1 26:1 59:1 64:1 105:1 111:1 124:1 131:1 # 3359
-0.0021560427988101720300773145311268 9:1 39:1 40:1 47:1 72:1 102:1 103:1 110:1 116:1 131:1 137:1 # 26694
0.0021707680666190184645691907405762 17:1 26:1 33:1 47:1 64:1 89:1 97:1 103:1 110:1 133:1 135:1 137:1 139:1 # 28625
0.0025725385495731149625153744153749 1:1 39:1 59:1 64:1 89:1 93:1 95:1 97:1 100:1 103:1 113:1 116:1 118:1 131:1 # 10297
0.0021794537918008180868434386923127 14:1 34:1 40:1 59:1 64:1 89:1 97:1 103:1 118:1 124:1 131:1 # 24663
-0.00039128330130310619077924072506391 5:1 9:1 26:1 51:1 68:1 76:1 82:1 93:1 110:1 116:1 133:1 135:1 137:1 139:1 # 30009
-0.00086796399697781662519596723726067 5:1 13:1 26:1 43:1 68:1 82:1 93:1 113:1 116:1 135:1 # 30326
-3.205638850951867042417264830334e-05 18:1 39:1 43:1 68:1 76:1 82:1 93:1 114:1 134:1 137:1 139:1 # 31039
-0.0038324580938920841700900954407416 13:1 19:1 35:1 55:1 61:1 64:1 97:1 103:1 118:1 124:1 140:1 # 13836
-0.0025813668545766462955604048090663 5:1 9:1 11:1 13:1 16:1 19:1 34:1 40:1 55:1 61:1 64:1 97:1 103:1 118:1 124:1 140:1 # 13186
0.0027333511838599881815792258521469 9:1 30:1 60:1 61:1 64:1 89:1 97:1 103:1 110:1 114:1 131:1 # 15177
0.0038324580938920841700900954407416 9:1 32:1 53:1 64:1 105:1 126:1 131:1 139:1 145:1 # 726
0.00074613355474021281123903071019754 5:1 9:1 26:1 47:1 64:1 89:1 93:1 95:1 97:1 100:1 103:1 116:1 131:1 # 4061
-0.0038324580938920841700900954407416 9:1 26:1 32:1 51:1 53:1 74:1 89:1 93:1 95:1 97:1 100:1 103:1 114:1 134:1 137:1 # 5771
-0.0021899112233766592980344078966937 5:1 22:1 59:1 84:1 105:1 110:1 118:1 124:1 131:1 139:1 145:1 # 963
-0.00017130155660867419590426274922379 9:1 31:1 63:1 84:1 105:1 113:1 118:1 124:1 131:1 139:1 145:1 # 491
-0.0024405963707186178676677990040389 9:1 29:1 32:1 47:1 51:1 53:1 55:1 58:1 61:1 68:1 76:1 82:1 85:1 116:1 124:1 131:1 # 18598
0.002967712515307935165764785523379 8:1 39:1 47:1 64:1 105:1 118:1 124:1 135:1 # 2572
-0.00075662003677512315157754896333131 17:1 26:1 47:1 48:1 53:1 59:1 64:1 102:1 103:1 119:1 131:1 135:1 137:1 139:1 142:1 145:1 # 13520
-0.00068469483250452225619325785643809 17:1 39:1 40:1 59:1 81:1 94:1 110:1 116:1 118:1 122:1 124:1 143:1 # 18809
-0.0014265313277312880509833936670816 18:1 38:1 47:1 55:1 61:1 68:1 72:1 74:1 76:1 79:1 82:1 101:1 118:1 124:1 143:1 # 5485
-0.0013184562214245167111048573360677 17:1 39:1 40:1 59:1 80:1 101:1 122:1 143:1 # 3972
-0.0029390720928400768108268437117658 16:1 22:1 60:1 64:1 102:1 110:1 114:1 118:1 124:1 144:1 # 7891
-0.0020591115436839439734040269058823 5:1 29:1 32:1 55:1 61:1 64:1 97:1 103:1 118:1 124:1 127:1 # 16818
-0.0028498843394652102929687220722599 9:1 27:1 51:1 53:1 81:1 89:1 93:1 95:1 97:1 100:1 103:1 110:1 134:1 135:1 137:1 # 5326
-0.0028466439499266549609246546026498 5:1 9:1 26:1 30:1 32:1 47:1 51:1 69:1 102:1 103:1 110:1 127:1 # 373
0.0035083480710732554627706569760903 17:1 34:1 40:1 47:1 55:1 61:1 64:1 95:1 97:1 103:1 110:1 131:1 # 2094
-0.00036454561576957473460064429460203 17:1 39:1 59:1 77:1 96:1 97:1 103:1 123:1 143:1 # 11699
-0.0038324580938920841700900954407416 1:1 39:1 59:1 77:1 97:1 103:1 122:1 131:1 # 13260
-5.6609583793437250303758750957783e-05 16:1 22:1 60:1 64:1 102:1 110:1 114:1 118:1 124:1 144:1 # 8490
-0.00089784236392893086893540743886888 5:1 9:1 11:1 13:1 16:1 19:1 26:1 51:1 72:1 92:1 95:1 110:1 114:1 116:1 121:1 134:1 135:1 137:1 # 5366
-0.00052925052569863229295216155989579 5:1 9:1 11:1 13:1 16:1 19:1 26:1 51:1 74:1 93:1 95:1 113:1 116:1 131:1 135:1 137:1 142:1 # 20794
0.00099424707475705728469683730708084 14:1 29:1 32:1 34:1 53:1 64:1 97:1 102:1 103:1 110:1 114:1 135:1 # 30518
-0.00058191940493111638486867231989663 17:1 39:1 47:1 68:1 72:1 74:1 79:1 85:1 111:1 118:1 124:1 131:1 # 20074
-0.0010867954390711162624555408129368 18:1 19:1 42:1 47:1 50:1 53:1 68:1 76:1 82:1 95:1 97:1 103:1 110:1 118:1 124:1 131:1 139:1 145:1 # 800
-0.0013727186262085346642874972289405 21:1 23:1 47:1 51:1 53:1 55:1 58:1 61:1 68:1 87:1 126:1 147:1 # 2298
-0.001858957517251086637849466498551 8:1 11:1 26:1 34:1 40:1 47:1 55:1 61:1 68:1 76:1 82:1 92:1 93:1 95:1 111:1 131:1 139:1 145:1 # 16999
-6.7296273827235978922181591777019e-05 1:1 26:1 34:1 40:1 43:1 81:1 101:1 123:1 143:1 # 3782
-0.0014447261860043591769758863918582 6:1 26:1 30:1 47:1 51:1 80:1 89:1 97:1 103:1 110:1 114:1 116:1 121:1 136:1 # 8073
0.00015618969614302548624615307737429 13:1 18:1 19:1 31:1 47:1 55:1 61:1 68:1 76:1 82:1 105:1 126:1 131:1 135:1 137:1 139:1 142:1 145:1 # 783
-0.00015060794657811334010602544175583 5:1 19:1 39:1 40:1 47:1 51:1 55:1 61:1 71:1 90:1 110:1 116:1 122:1 123:1 144:1 # 6767
-0.0013405009038975190110987156799638 7:1 9:1 11:1 13:1 26:1 63:1 80:1 92:1 103:1 110:1 117:1 118:1 122:1 123:1 124:1 135:1 137:1 # 98
-0.0011079349259068532306676813092849 10:1 39:1 40:1 59:1 77:1 102:1 103:1 110:1 131:1 135:1 137:1 142:1 # 21860
0.0031234645066849243272288916273283 9:1 29:1 32:1 47:1 51:1 53:1 55:1 58:1 61:1 64:1 102:1 103:1 122:1 144:1 # 18767
-0.0015947757348284703066143563887636 6:1 7:1 18:1 29:1 30:1 32:1 47:1 51:1 53:1 58:1 80:1 89:1 97:1 103:1 122:1 144:1 # 3469
-0.0021089438153112588861248788418834 14:1 26:1 47:1 48:1 53:1 59:1 64:1 102:1 103:1 122:1 144:1 # 28422
-0.00038460685275176602088836874671074 5:1 9:1 11:1 16:1 29:1 32:1 47:1 51:1 53:1 65:1 89:1 97:1 101:1 103:1 122:1 129:1 # 5691
0.0026333314486004445915956484469689 1:1 34:1 40:1 55:1 61:1 64:1 90:1 103:1 123:1 143:1 # 16857
-9.2297999445035779531205932801896e-05 18:1 39:1 52:1 68:1 72:1 76:1 82:1 98:1 123:1 124:1 131:1 135:1 139:1 145:1 # 7628
-0.0036792589537832658293237120261665 5:1 38:1 58:1 64:1 93:1 119:1 135:1 # 2038
-0.00082677245873721599746936083974447 7:1 9:1 11:1 13:1 34:1 40:1 56:1 76:1 82:1 85:1 126:1 133:1 134:1 139:1 145:1 # 2945
0.0038324580938920841700900954407416 18:1 26:1 59:1 66:1 105:1 126:1 132:1 139:1 145:1 # 1059
-0.0015917266561667508303207219100273 18:1 38:1 47:1 51:1 53:1 55:1 58:1 61:1 76:1 82:1 98:1 110:1 143:1 # 26585
0.0011225025339827267908260344242422 17:1 32:1 47:1 51:1 53:1 58:1 64:1 95:1 97:1 103:1 111:1 131:1 135:1 137:1 142:1 # 2762
0.0018435061152039344638253748343004 18:1 38:1 47:1 53:1 55:1 59:1 61:1 64:1 89:1 93:1 103:1 110:1 114:1 131:1 134:1 135:1 137:1 139:1 143:1 # 30915
-0.0013007435995590484970746425474886 5:1 26:1 30:1 43:1 80:1 89:1 93:1 95:1 97:1 100:1 103:1 114:1 135:1 # 4508
-0.0003286973631694535763828057817193 5:1 13:1 19:1 26:1 34:1 40:1 63:1 68:1 71:1 74:1 93:1 103:1 123:1 131:1 145:1 # 620
-0.0014484589440838580888526454515386 18:1 19:1 38:1 56:1 76:1 82:1 95:1 97:1 103:1 110:1 114:1 116:1 121:1 131:1 135:1 137:1 142:1 # 29123
-0.0010626052063064297253935919229662 1:1 38:1 47:1 55:1 59:1 61:1 80:1 90:1 103:1 110:1 134:1 137:1 139:1 # 5735
-0.0022006167366489799534778892819986 8:1 11:1 13:1 32:1 47:1 51:1 77:1 102:1 103:1 119:1 131:1 135:1 137:1 142:1 # 8505
-0.00089919941069749407397404539210584 7:1 9:1 11:1 13:1 27:1 53:1 68:1 102:1 103:1 113:1 116:1 131:1 137:1 # 24017
-4.6531739146497540248782753824486e-05 7:1 8:1 11:1 13:1 26:1 47:1 51:1 81:1 91:1 93:1 95:1 97:1 123:1 134:1 137:1 # 11189
0.0015500006582375681300073333446221 5:1 29:1 30:1 32:1 47:1 51:1 53:1 55:1 58:1 61:1 64:1 95:1 97:1 103:1 119:1 131:1 # 22435
-0.00062589339531338356904799358204627 1:1 39:1 40:1 59:1 71:1 102:1 103:1 122:1 131:1 135:1 137:1 142:1 # 15463
0.0017360790382189325402328972103305 18:1 19:1 38:1 47:1 64:1 90:1 103:1 123:1 124:1 131:1 # 19905
-0.001358692445382113887786257322432 13:1 19:1 35:1 58:1 61:1 64:1 101:1 112:1 113:1 116:1 118:1 132:1 # 12087
-0.00086527025780698920472827628813661 17:1 18:1 26:1 50:1 51:1 53:1 81:1 101:1 110:1 116:1 118:1 122:1 124:1 127:1 # 24572
-0.001411075930036514297638561288295 8:1 11:1 30:1 60:1 80:1 89:1 93:1 95:1 97:1 100:1 103:1 110:1 134:1 135:1 137:1 # 19394
-0.0016882266377432697881944001494503 3:1 35:1 47:1 59:1 64:1 101:1 106:1 147:1 # 3745
0.00011062256054501506681141814736336 9:1 30:1 53:1 64:1 91:1 92:1 97:1 103:1 111:1 131:1 135:1 137:1 142:1 # 10606
-0.0011601852349306961999231280202594 17:1 24:1 63:1 84:1 90:1 103:1 110:1 116:1 131:1 # 1204
-0.0010695908619602217688032697040512 5:1 22:1 47:1 61:1 81:1 82:1 89:1 93:1 97:1 103:1 114:1 137:1 # 6727
0.0011752044975497477185405470478941 5:1 9:1 11:1 16:1 28:1 34:1 47:1 51:1 53:1 58:1 64:1 95:1 103:1 119:1 132:1 # 20454
0.0020826297770168799954049188016825 8:1 11:1 13:1 26:1 47:1 51:1 64:1 101:1 110:1 114:1 116:1 118:1 121:1 124:1 135:1 # 4507
-0.0002431962847572163898338115650688 8:1 11:1 13:1 26:1 30:1 43:1 84:1 105:1 110:1 118:1 124:1 131:1 139:1 145:1 # 2358
0.00293970226359962149773052964008 18:1 29:1 32:1 60:1 64:1 90:1 103:1 110:1 116:1 131:1 137:1 # 312
-0.00093419165045927337210490692953613 8:1 11:1 13:1 38:1 39:1 47:1 51:1 73:1 89:1 93:1 95:1 97:1 100:1 103:1 110:1 118:1 124:1 131:1 139:1 145:1 # 2081
0.0014441505613753732178983213430001 14:1 39:1 45:1 64:1 89:1 93:1 95:1 97:1 100:1 103:1 113:1 116:1 118:1 132:1 137:1 # 21310
-0.0011930549175462894142402126007596 14:1 39:1 43:1 69:1 89:1 93:1 95:1 97:1 100:1 103:1 116:1 134:1 137:1 # 4912
0.00098254424099056400163099134204003 9:1 26:1 53:1 64:1 105:1 126:1 137:1 139:1 145:1 # 568
-0.00069393785621326244724554888065882 5:1 9:1 11:1 13:1 16:1 19:1 29:1 32:1 43:1 84:1 105:1 122:1 134:1 145:1 # 57
-0.00096645910423757259120891571768652 1:1 42:1 63:1 80:1 97:1 103:1 113:1 116:1 118:1 131:1 139:1 145:1 # 552
-0.0023253819799560928975601381551996 11:1 13:1 19:1 38:1 53:1 68:1 72:1 89:1 97:1 103:1 114:1 135:1 # 28599
-0.00053168933221038735745245240593704 17:1 30:1 47:1 51:1 53:1 55:1 58:1 61:1 68:1 101:1 118:1 124:1 143:1 # 13424
-0.0002581047647527719536911239295307 11:1 18:1 39:1 40:1 53:1 70:1 76:1 102:1 103:1 110:1 114:1 116:1 118:1 121:1 124:1 131:1 # 15290
-0.0015483040849975718278308534081589 8:1 11:1 26:1 32:1 47:1 80:1 89:1 95:1 97:1 103:1 116:1 137:1 # 16496
0.0021396674946095729612227653859691 5:1 29:1 32:1 34:1 47:1 64:1 105:1 113:1 116:1 118:1 124:1 132:1 # 3450
-0.0013482172335525437027736739281636 21:1 42:1 51:1 61:1 81:1 89:1 103:1 110:1 124:1 133:1 134:1 137:1 139:1 # 1513
0.00031706268914845754615036699242125 7:1 9:1 11:1 13:1 26:1 30:1 32:1 34:1 37:1 40:1 47:1 51:1 53:1 55:1 58:1 61:1 64:1 89:1 103:1 115:1 137:1 145:1 # 4201
-0.00081569702051652380296598021658383 6:1 26:1 30:1 43:1 84:1 105:1 122:1 135:1 139:1 145:1 # 518
-0.00088280871065050687401809526022589 5:1 11:1 26:1 50:1 53:1 69:1 95:1 103:1 110:1 118:1 124:1 135:1 139:1 145:1 # 2174
-0.00029794601779757867417511296714849 18:1 26:1 30:1 59:1 70:1 76:1 95:1 97:1 103:1 122:1 137:1 145:1 # 5105
0.0014390396773826513027172424585842 8:1 11:1 39:1 47:1 51:1 53:1 58:1 64:1 95:1 103:1 119:1 144:1 # 15022
-0.00065406854841284492105280001794654 5:1 9:1 11:1 13:1 16:1 19:1 26:1 32:1 47:1 51:1 68:1 93:1 114:1 134:1 137:1 # 30993
4.2644105477200860282449568217089e-05 8:1 11:1 26:1 32:1 34:1 40:1 47:1 55:1 61:1 64:1 89:1 97:1 103:1 114:1 118:1 137:1 # 5389
0.00055010513518827946783523730189813 5:1 9:1 11:1 26:1 30:1 50:1 53:1 64:1 89:1 103:1 110:1 143:1 # 29720
-0.00038980773385166106936514096581448 8:1 11:1 32:1 50:1 53:1 72:1 74:1 89:1 97:1 103:1 114:1 135:1 137:1 # 4163
0.0014576220764394901517613245545135 1:1 39:1 59:1 64:1 97:1 103:1 110:1 133:1 134:1 137:1 139:1 # 30600
-0.0030966617877211462424302812479482 5:1 9:1 30:1 51:1 72:1 89:1 93:1 95:1 97:1 100:1 103:1 123:1 131:1 # 6665
-0.0021415265631832929027478229500048 10:1 39:1 40:1 59:1 66:1 98:1 110:1 131:1 # 20304
-0.0011705549816516938252397572739483 9:1 29:1 32:1 58:1 64:1 89:1 113:1 116:1 118:1 131:1 135:1 137:1 139:1 142:1 145:1 # 4625
0.0017459302795230630372252944582101 5:1 9:1 11:1 16:1 38:1 47:1 64:1 96:1 97:1 103:1 114:1 135:1 # 4479
-0.00066235354701050109648557961961046 5:1 9:1 11:1 13:1 16:1 19:1 28:1 30:1 34:1 38:1 47:1 59:1 64:1 102:1 110:1 122:1 143:1 # 14523
0.00092371466698846636973752044497132 10:1 39:1 47:1 51:1 53:1 55:1 58:1 61:1 68:1 72:1 76:1 82:1 105:1 107:1 131:1 135:1 137:1 139:1 142:1 145:1 # 835
-0.0011660139152694544428801037838639 5:1 9:1 34:1 40:1 47:1 80:1 97:1 103:1 110:1 116:1 131:1 135:1 # 11982
0.0020097794253927962412897834099113 8:1 11:1 39:1 47:1 64:1 102:1 103:1 110:1 140:1 # 15480
-0.00032422917437235112799245873027587 5:1 8:1 9:1 11:1 13:1 17:1 32:1 47:1 51:1 70:1 76:1 92:1 95:1 110:1 140:1 # 5345
-0.0003093020100700875191744587677789 5:1 11:1 26:1 47:1 51:1 68:1 92:1 95:1 110:1 116:1 118:1 124:1 139:1 145:1 # 4965
-1.499367197589317993351720748052e-06 18:1 19:1 30:1 51:1 53:1 71:1 74:1 89:1 93:1 95:1 97:1 100:1 103:1 113:1 116:1 131:1 132:1 135:1 137:1 139:1 143:1 # 19964
-0.00054321970089070122176405641667429 7:1 8:1 11:1 13:1 30:1 34:1 40:1 47:1 55:1 61:1 80:1 89:1 93:1 95:1 97:1 100:1 103:1 122:1 135:1 # 1772
